{"learner":{"attributes":{"scikit_learn":"{\"_estimator_type\": \"classifier\"}"},"feature_names":["norm_x","norm_y","distance_ft","angle_deg","abs_angle_deg","is_rebound","seconds_since_last_event_capped","is_same_team_as_prev","is_overtime","is_empty_net","strength_state_advantaged","strength_state_even","strength_state_shorthanded","shot_type_group_backhand","shot_type_group_other","shot_type_group_poke","shot_type_group_slap","shot_type_group_snap","shot_type_group_tip-in","shot_type_group_wrap-around","shot_type_group_wrist","prev_event_type_group_blocked-shot","prev_event_type_group_faceoff","prev_event_type_group_hit","prev_event_type_group_penalty","prev_event_type_group_shot","prev_event_type_group_stoppage","prev_event_type_group_turnover"],"feature_types":["float","float","float","float","float","int","float","int","int","int","int","int","int","int","int","int","int","int","int","int","int","int","int","int","int","int","int","int"],"gradient_booster":{"model":{"cats":{"enc":[],"feature_segments":[],"sorted_idx":[]},"gbtree_model_param":{"num_parallel_tree":"1","num_trees":"800"},"iteration_indptr":[0,1,2,3,4,5,6,7,8,9,10,11,12,13,14,15,16,17,18,19,20,21,22,23,24,25,26,27,28,29,30,31,32,33,34,35,36,37,38,39,40,41,42,43,44,45,46,47,48,49,50,51,52,53,54,55,56,57,58,59,60,61,62,63,64,65,66,67,68,69,70,71,72,73,74,75,76,77,78,79,80,81,82,83,84,85,86,87,88,89,90,91,92,93,94,95,96,97,98,99,100,101,102,103,104,105,106,107,108,109,110,111,112,113,114,115,116,117,118,119,120,121,122,123,124,125,126,127,128,129,130,131,132,133,134,135,136,137,138,139,140,141,142,143,144,145,146,147,148,149,150,151,152,153,154,155,156,157,158,159,160,161,162,163,164,165,166,167,168,169,170,171,172,173,174,175,176,177,178,179,180,181,182,183,184,185,186,187,188,189,190,191,192,193,194,195,196,197,198,199,200,201,202,203,204,205,206,207,208,209,210,211,212,213,214,215,216,217,218,219,220,221,222,223,224,225,226,227,228,229,230,231,232,233,234,235,236,237,238,239,240,241,242,243,244,245,246,247,248,249,250,251,252,253,254,255,256,257,258,259,260,261,262,263,264,265,266,267,268,269,270,271,272,273,274,275,276,277,278,279,280,281,282,283,284,285,286,287,288,289,290,291,292,293,294,295,296,297,298,299,300,301,302,303,304,305,306,307,308,309,310,311,312,313,314,315,316,317,318,319,320,321,322,323,324,325,326,327,328,329,330,331,332,333,334,335,336,337,338,339,340,341,342,343,344,345,346,347,348,349,350,351,352,353,354,355,356,357,358,359,360,361,362,363,364,365,366,367,368,369,370,371,372,373,374,375,376,377,378,379,380,381,382,383,384,385,386,387,388,389,390,391,392,393,394,395,396,397,398,399,400,401,402,403,404,405,406,407,408,409,410,411,412,413,414,415,416,417,418,419,420,421,422,423,424,425,426,427,428,429,430,431,432,433,434,435,436,437,438,439,440,441,442,443,444,445,446,447,448,449,450,451,452,453,454,455,456,457,458,459,460,461,462,463,464,465,466,467,468,469,470,471,472,473,474,475,476,477,478,479,480,481,482,483,484,485,486,487,488,489,490,491,492,493,494,495,496,497,498,499,500,501,502,503,504,505,506,507,508,509,510,511,512,513,514,515,516,517,518,519,520,521,522,523,524,525,526,527,528,529,530,531,532,533,534,535,536,537,538,539,540,541,542,543,544,545,546,547,548,549,550,551,552,553,554,555,556,557,558,559,560,561,562,563,564,565,566,567,568,569,570,571,572,573,574,575,576,577,578,579,580,581,582,583,584,585,586,587,588,589,590,591,592,593,594,595,596,597,598,599,600,601,602,603,604,605,606,607,608,609,610,611,612,613,614,615,616,617,618,619,620,621,622,623,624,625,626,627,628,629,630,631,632,633,634,635,636,637,638,639,640,641,642,643,644,645,646,647,648,649,650,651,652,653,654,655,656,657,658,659,660,661,662,663,664,665,666,667,668,669,670,671,672,673,674,675,676,677,678,679,680,681,682,683,684,685,686,687,688,689,690,691,692,693,694,695,696,697,698,699,700,701,702,703,704,705,706,707,708,709,710,711,712,713,714,715,716,717,718,719,720,721,722,723,724,725,726,727,728,729,730,731,732,733,734,735,736,737,738,739,740,741,742,743,744,745,746,747,748,749,750,751,752,753,754,755,756,757,758,759,760,761,762,763,764,765,766,767,768,769,770,771,772,773,774,775,776,777,778,779,780,781,782,783,784,785,786,787,788,789,790,791,792,793,794,795,796,797,798,799,800],"tree_info":[0,0,0,0,0,0,0,0,0,0,0,0,0,0,0,0,0,0,0,0,0,0,0,0,0,0,0,0,0,0,0,0,0,0,0,0,0,0,0,0,0,0,0,0,0,0,0,0,0,0,0,0,0,0,0,0,0,0,0,0,0,0,0,0,0,0,0,0,0,0,0,0,0,0,0,0,0,0,0,0,0,0,0,0,0,0,0,0,0,0,0,0,0,0,0,0,0,0,0,0,0,0,0,0,0,0,0,0,0,0,0,0,0,0,0,0,0,0,0,0,0,0,0,0,0,0,0,0,0,0,0,0,0,0,0,0,0,0,0,0,0,0,0,0,0,0,0,0,0,0,0,0,0,0,0,0,0,0,0,0,0,0,0,0,0,0,0,0,0,0,0,0,0,0,0,0,0,0,0,0,0,0,0,0,0,0,0,0,0,0,0,0,0,0,0,0,0,0,0,0,0,0,0,0,0,0,0,0,0,0,0,0,0,0,0,0,0,0,0,0,0,0,0,0,0,0,0,0,0,0,0,0,0,0,0,0,0,0,0,0,0,0,0,0,0,0,0,0,0,0,0,0,0,0,0,0,0,0,0,0,0,0,0,0,0,0,0,0,0,0,0,0,0,0,0,0,0,0,0,0,0,0,0,0,0,0,0,0,0,0,0,0,0,0,0,0,0,0,0,0,0,0,0,0,0,0,0,0,0,0,0,0,0,0,0,0,0,0,0,0,0,0,0,0,0,0,0,0,0,0,0,0,0,0,0,0,0,0,0,0,0,0,0,0,0,0,0,0,0,0,0,0,0,0,0,0,0,0,0,0,0,0,0,0,0,0,0,0,0,0,0,0,0,0,0,0,0,0,0,0,0,0,0,0,0,0,0,0,0,0,0,0,0,0,0,0,0,0,0,0,0,0,0,0,0,0,0,0,0,0,0,0,0,0,0,0,0,0,0,0,0,0,0,0,0,0,0,0,0,0,0,0,0,0,0,0,0,0,0,0,0,0,0,0,0,0,0,0,0,0,0,0,0,0,0,0,0,0,0,0,0,0,0,0,0,0,0,0,0,0,0,0,0,0,0,0,0,0,0,0,0,0,0,0,0,0,0,0,0,0,0,0,0,0,0,0,0,0,0,0,0,0,0,0,0,0,0,0,0,0,0,0,0,0,0,0,0,0,0,0,0,0,0,0,0,0,0,0,0,0,0,0,0,0,0,0,0,0,0,0,0,0,0,0,0,0,0,0,0,0,0,0,0,0,0,0,0,0,0,0,0,0,0,0,0,0,0,0,0,0,0,0,0,0,0,0,0,0,0,0,0,0,0,0,0,0,0,0,0,0,0,0,0,0,0,0,0,0,0,0,0,0,0,0,0,0,0,0,0,0,0,0,0,0,0,0,0,0,0,0,0,0,0,0,0,0,0,0,0,0,0,0,0,0,0,0,0,0,0,0,0,0,0,0,0,0,0,0,0,0,0,0,0,0,0,0,0,0,0,0,0,0,0,0,0,0,0,0,0,0,0,0,0,0,0,0,0,0,0,0,0,0,0,0,0,0,0,0,0,0,0,0,0,0,0,0,0,0,0,0,0,0,0,0,0,0,0,0,0,0,0,0,0,0,0,0,0,0,0,0,0,0,0,0,0,0,0,0,0,0,0,0,0,0,0,0,0,0,0,0,0,0,0,0,0,0,0,0,0,0,0,0,0,0,0,0,0,0,0,0,0,0,0,0,0,0,0,0,0,0,0,0,0,0,0,0,0,0,0,0,0,0,0,0,0,0,0,0,0,0,0,0,0,0,0,0,0,0,0,0],"trees":[{"base_weights":[2.0511984E-3,4.6949407E-1,-6.288411E-1,-4.3875402E-1,7.6825404E-1,-3.6311516E-1,-8.340105E-1,-1.855507E-2,-1.1611634E-3,-1.26065025E-2,2.8180012E-2,-1.9502338E-2,-6.006269E-3,-2.0666866E-2,-2.625984E-2],"categories":[],"categories_nodes":[],"categories_segments":[],"categories_sizes":[],"default_left":[0,0,0,0,0,0,0,0,0,0,0,0,0,0,0],"id":0,"left_children":[1,3,5,7,9,11,13,-1,-1,-1,-1,-1,-1,-1,-1],"loss_changes":[4.176181E3,2.2099575E3,3.265569E2,1.4465912E2,1.2483694E3,1.2258032E2,1.6648438E1,0E0,0E0,0E0,0E0,0E0,0E0,0E0,0E0],"parents":[2147483647,0,0,1,1,2,2,3,3,4,4,5,5,6,6],"right_children":[2,4,6,8,10,12,14,-1,-1,-1,-1,-1,-1,-1,-1],"split_conditions":[1.8E1,5.6E1,2.6E1,4.8E1,2E0,5.6E1,2.9E1,-1.855507E-2,-1.1611634E-3,-1.26065025E-2,2.8180012E-2,-1.9502338E-2,-6.006269E-3,-2.0666866E-2,-2.625984E-2],"split_indices":[1,0,1,0,6,0,1,0,0,0,0,0,0,0,0],"split_type":[0,0,0,0,0,0,0,0,0,0,0,0,0,0,0],"sum_hessian":[1.4143877E4,8.125918E3,6.017959E3,2.0100189E3,6.115899E3,2.6308623E3,3.387097E3,1.3833198E3,6.2669916E2,7.6794617E2,5.3479526E3,9.44521E2,1.6863413E3,7.7817773E2,2.6089192E3],"tree_param":{"num_deleted":"0","num_feature":"28","num_nodes":"15","size_leaf_vector":"1"}},{"base_weights":[1.7212053E-3,5.564561E-1,-6.1585873E-1,1E0,2.1311773E-1,-4.2151693E-1,-8.4875464E-1,-5.5880267E-3,3E-2,1.3033196E-2,-8.938328E-3,-5.0304676E-3,-1.9792713E-2,-2.1147419E-2,-2.6438374E-2],"categories":[],"categories_nodes":[],"categories_segments":[],"categories_sizes":[],"default_left":[0,0,0,0,0,0,0,0,0,0,0,0,0,0,0],"id":1,"left_children":[1,3,5,7,9,11,13,-1,-1,-1,-1,-1,-1,-1,-1],"loss_changes":[4.8618555E3,1.462082E3,3.016902E2,5.8780493E2,5.385351E2,2.2142487E2,1.0437256E1,0E0,0E0,0E0,0E0,0E0,0E0,0E0,0E0],"parents":[2147483647,0,0,1,1,2,2,3,3,4,4,5,5,6,6],"right_children":[2,4,6,8,10,12,14,-1,-1,-1,-1,-1,-1,-1,-1],"split_conditions":[3.3286633E1,6E0,2.6E1,2E0,5.8570435E1,4.4911022E1,2.9E1,-5.5880267E-3,3E-2,1.3033196E-2,-8.938328E-3,-5.0304676E-3,-1.9792713E-2,-2.1147419E-2,-2.6438374E-2],"split_indices":[2,1,1,6,3,2,1,0,0,0,0,0,0,0,0],"split_type":[0,0,0,0,0,0,0,0,0,0,0,0,0,0,0],"sum_hessian":[1.417434E4,7.4680493E3,6.706291E3,2.7275168E3,4.740532E3,3.6666802E3,3.0396108E3,4.1470255E2,2.3128142E3,3.3096233E3,1.430909E3,1.7817131E3,1.884967E3,5.8989264E2,2.449718E3],"tree_param":{"num_deleted":"0","num_feature":"28","num_nodes":"15","size_leaf_vector":"1"}},{"base_weights":[3.9727218E-3,5.37436E-1,-6.055192E-1,8.259401E-1,1.2390615E-4,-3.250401E-1,-7.3745394E-1,-9.816957E-3,2.887451E-2,3E-2,-1.9468928E-3,-2.6233988E-3,-1.8044038E-2,-1.819682E-2,-2.4708966E-2],"categories":[],"categories_nodes":[],"categories_segments":[],"categories_sizes":[],"default_left":[0,0,0,0,0,0,0,0,0,0,0,0,0,0,0],"id":2,"left_children":[1,3,5,7,9,11,13,-1,-1,-1,-1,-1,-1,-1,-1],"loss_changes":[4.608424E3,1.171138E3,2.4314087E2,7.770376E2,2.3322527E2,1.3946873E2,4.762207E1,0E0,0E0,0E0,0E0,0E0,0E0,0E0,0E0],"parents":[2147483647,0,0,1,1,2,2,3,3,4,4,5,5,6,6],"right_children":[2,4,6,8,10,12,14,-1,-1,-1,-1,-1,-1,-1,-1],"split_conditions":[3.3286633E1,4.574406E1,4.20119E1,2E0,5.0990195E0,3.6689724E1,2.3025492E1,-9.816957E-3,2.887451E-2,3E-2,-1.9468928E-3,-2.6233988E-3,-1.8044038E-2,-1.819682E-2,-2.4708966E-2],"split_indices":[2,4,2,6,2,4,4,0,0,0,0,0,0,0,0],"split_type":[0,0,0,0,0,0,0,0,0,0,0,0,0,0,0],"sum_hessian":[1.415649E4,7.5501196E3,6.6063706E3,4.9094326E3,2.640687E3,2.1219023E3,4.4844683E3,5.182985E2,4.391134E3,1.05110214E2,2.535577E3,1.1468125E3,9.750897E2,1.802955E3,2.6815132E3],"tree_param":{"num_deleted":"0","num_feature":"28","num_nodes":"15","size_leaf_vector":"1"}},{"base_weights":[6.620034E-3,5.6875795E-1,-5.484281E-1,1E0,2.3948963E-1,-2.0673195E-1,-7.156574E-1,-5.0821756E-3,3E-2,1.4044335E-2,-7.935917E-3,9.857322E-4,-1.6736846E-2,-1.7133398E-2,-2.5701987E-2],"categories":[],"categories_nodes":[],"categories_segments":[],"categories_sizes":[],"default_left":[0,0,0,0,0,0,0,0,0,0,0,0,0,0,0],"id":3,"left_children":[1,3,5,7,9,11,13,-1,-1,-1,-1,-1,-1,-1,-1],"loss_changes":[4.412125E3,1.1504058E3,4.0536816E2,5.623999E2,4.9242197E2,1.9853128E2,9.435205E1,0E0,0E0,0E0,0E0,0E0,0E0,0E0,0E0],"parents":[2147483647,0,0,1,1,2,2,3,3,4,4,5,5,6,6],"right_children":[2,4,6,8,10,12,14,-1,-1,-1,-1,-1,-1,-1,-1],"split_conditions":[3.1016125E1,6E0,4.0311287E1,2E0,5.8570435E1,2.3E1,2.6E1,-5.0821756E-3,3E-2,1.4044335E-2,-7.935917E-3,9.857322E-4,-1.6736846E-2,-1.7133398E-2,-2.5701987E-2],"split_indices":[2,1,2,6,3,1,1,0,0,0,0,0,0,0,0],"split_type":[0,0,0,0,0,0,0,0,0,0,0,0,0,0,0],"sum_hessian":[1.4123423E4,7.017495E3,7.105928E3,2.7649214E3,4.2525737E3,2.3408406E3,4.765088E3,4.0836307E2,2.3565583E3,2.9267383E3,1.3258353E3,1.3934365E3,9.47404E2,2.371196E3,2.3938918E3],"tree_param":{"num_deleted":"0","num_feature":"28","num_nodes":"15","size_leaf_vector":"1"}},{"base_weights":[-3.1928497E-3,5.1639605E-1,-5.543216E-1,1E0,2.0145243E-1,-3.576737E-1,-8.148081E-1,3E-2,9.983071E-3,1.1066929E-2,-1.1230904E-2,-3.9355946E-3,-1.8671043E-2,-2.6612246E-2,-2.2162028E-2],"categories":[],"categories_nodes":[],"categories_segments":[],"categories_sizes":[],"default_left":[0,0,0,0,0,0,0,0,0,0,0,0,0,0,0],"id":4,"left_children":[1,3,5,7,9,11,13,-1,-1,-1,-1,-1,-1,-1,-1],"loss_changes":[4.0502144E3,1.121356E3,3.497732E2,4.4013354E2,4.2947925E2,2.3467319E2,1.2257324E1,0E0,0E0,0E0,0E0,0E0,0E0,0E0,0E0],"parents":[2147483647,0,0,1,1,2,2,3,3,4,4,5,5,6,6],"right_children":[2,4,6,8,10,12,14,-1,-1,-1,-1,-1,-1,-1,-1],"split_conditions":[3.1622776E1,6E0,2.6E1,1E0,6.453665E1,4.4911022E1,1E0,3E-2,9.983071E-3,1.1066929E-2,-1.1230904E-2,-3.9355946E-3,-1.8671043E-2,-2.6612246E-2,-2.2162028E-2],"split_indices":[2,1,1,18,3,2,10,0,0,0,0,0,0,0,0],"split_type":[0,0,0,0,0,0,0,0,0,0,0,0,0,0,0],"sum_hessian":[1.4126079E4,7.2705874E3,6.855491E3,2.839202E3,4.4313853E3,3.916183E3,2.9393083E3,1.8408501E3,9.9835175E2,3.4357424E3,9.956431E2,2.1167668E3,1.7994163E3,1.4695115E3,1.4697968E3],"tree_param":{"num_deleted":"0","num_feature":"28","num_nodes":"15","size_leaf_vector":"1"}},{"base_weights":[-4.1455723E-4,4.1560006E-1,-5.6338084E-1,-4.590408E-1,6.210063E-1,-3.0598047E-1,-8.07665E-1,-1.9657139E-2,-7.3006414E-3,-1.191926E-2,2.2658238E-2,-2.0067329E-2,-5.5156094E-3,-2.0008983E-2,-2.5466943E-2],"categories":[],"categories_nodes":[],"categories_segments":[],"categories_sizes":[],"default_left":[0,0,0,0,0,0,0,0,0,0,0,0,0,0,0],"id":5,"left_children":[1,3,5,7,9,11,13,-1,-1,-1,-1,-1,-1,-1,-1],"loss_changes":[3.3110771E3,1.4625908E3,3.761366E2,6.453723E1,9.029761E2,1.2955347E2,1.4374512E1,0E0,0E0,0E0,0E0,0E0,0E0,0E0,0E0],"parents":[2147483647,0,0,1,1,2,2,3,3,4,4,5,5,6,6],"right_children":[2,4,6,8,10,12,14,-1,-1,-1,-1,-1,-1,-1,-1],"split_conditions":[1.7E1,5.3E1,2.6E1,4E1,2E0,5.1E1,2.9E1,-1.9657139E-2,-7.3006414E-3,-1.191926E-2,2.2658238E-2,-2.0067329E-2,-5.5156094E-3,-2.0008983E-2,-2.5466943E-2],"split_indices":[1,0,1,0,6,0,1,0,0,0,0,0,0,0,0],"split_type":[0,0,0,0,0,0,0,0,0,0,0,0,0,0,0],"sum_hessian":[1.4118947E4,8.119286E3,5.9996616E3,1.5420443E3,6.5772417E3,2.9294778E3,3.0701838E3,7.992803E2,7.4276404E2,7.64185E2,5.8130566E3,7.292687E2,2.2002092E3,7.233056E2,2.3468782E3],"tree_param":{"num_deleted":"0","num_feature":"28","num_nodes":"15","size_leaf_vector":"1"}},{"base_weights":[-1.746874E-4,3.9903158E-1,-5.56667E-1,-4.594268E-1,5.9540844E-1,-3.1119978E-1,-7.9165894E-1,-1.972789E-2,-7.3921983E-3,-1.2313451E-2,2.1744017E-2,-1.9842993E-2,-5.8344947E-3,-1.8748814E-2,-2.5213711E-2],"categories":[],"categories_nodes":[],"categories_segments":[],"categories_sizes":[],"default_left":[0,0,0,0,0,0,0,0,0,0,0,0,0,0,0],"id":6,"left_children":[1,3,5,7,9,11,13,-1,-1,-1,-1,-1,-1,-1,-1],"loss_changes":[3.1351362E3,1.3872214E3,3.3842505E2,6.3671997E1,8.7314526E2,1.1768771E2,2.1205933E1,0E0,0E0,0E0,0E0,0E0,0E0,0E0,0E0],"parents":[2147483647,0,0,1,1,2,2,3,3,4,4,5,5,6,6],"right_children":[2,4,6,8,10,12,14,-1,-1,-1,-1,-1,-1,-1,-1],"split_conditions":[1.7E1,5.3E1,2.6E1,4E1,2E0,5.1E1,2.9E1,-1.972789E-2,-7.3921983E-3,-1.2313451E-2,2.1744017E-2,-1.9842993E-2,-5.8344947E-3,-1.8748814E-2,-2.5213711E-2],"split_indices":[1,0,1,0,6,0,1,0,0,0,0,0,0,0,0],"split_type":[0,0,0,0,0,0,0,0,0,0,0,0,0,0,0],"sum_hessian":[1.4093386E4,8.20662E3,5.8867656E3,1.5256047E3,6.681015E3,2.8875918E3,2.9991736E3,7.8204083E2,7.435639E2,7.593355E2,5.9216797E3,7.1316345E2,2.1744285E3,7.01387E2,2.2977866E3],"tree_param":{"num_deleted":"0","num_feature":"28","num_nodes":"15","size_leaf_vector":"1"}},{"base_weights":[1.5801768E-3,4.208876E-1,-5.8607686E-1,6.4414865E-1,-2.5516674E-2,-3.4771037E-1,-7.14227E-1,2.5223382E-2,2.5187463E-3,3E-2,-2.5972328E-3,-5.595293E-3,-2.1671882E-2,-1.715334E-2,-2.4132555E-2],"categories":[],"categories_nodes":[],"categories_segments":[],"categories_sizes":[],"default_left":[0,0,0,0,0,0,0,0,0,0,0,0,0,0,0],"id":7,"left_children":[1,3,5,7,9,11,13,-1,-1,-1,-1,-1,-1,-1,-1],"loss_changes":[3.4803606E3,8.2220337E2,1.7799292E2,6.045161E2,2.1204396E2,1.2432332E2,4.6218872E1,0E0,0E0,0E0,0E0,0E0,0E0,0E0,0E0],"parents":[2147483647,0,0,1,1,2,2,3,3,4,4,5,5,6,6],"right_children":[2,4,6,8,10,12,14,-1,-1,-1,-1,-1,-1,-1,-1],"split_conditions":[3.44093E1,4.574406E1,4.3416588E1,1E0,5.0990195E0,4.3025066E1,2.1974508E1,2.5223382E-2,2.5187463E-3,3E-2,-2.5972328E-3,-5.595293E-3,-2.1671882E-2,-1.715334E-2,-2.4132555E-2],"split_indices":[2,4,2,18,2,4,4,0,0,0,0,0,0,0,0],"split_type":[0,0,0,0,0,0,0,0,0,0,0,0,0,0,0],"sum_hessian":[1.4106701E4,8.234306E3,5.8723955E3,5.4884023E3,2.7459036E3,2.063081E3,3.8093147E3,4.0592373E3,1.4291648E3,1.1598066E2,2.629923E3,1.450166E3,6.129149E2,1.4971149E3,2.3122E3],"tree_param":{"num_deleted":"0","num_feature":"28","num_nodes":"15","size_leaf_vector":"1"}},{"base_weights":[4.4333264E-3,4.562322E-1,-5.1423115E-1,8.8116723E-1,1.7159748E-1,-3.2730553E-1,-7.77349E-1,-6.2611117E-3,3E-2,9.695338E-3,-1.2418606E-2,-2.2447975E-3,-1.6593523E-2,-1.8154897E-2,-2.4595482E-2],"categories":[],"categories_nodes":[],"categories_segments":[],"categories_sizes":[],"default_left":[0,0,0,0,0,0,0,0,0,0,0,0,0,0,0],"id":8,"left_children":[1,3,5,7,9,11,13,-1,-1,-1,-1,-1,-1,-1,-1],"loss_changes":[3.3114304E3,9.1238586E2,3.2192712E2,5.6827246E2,4.0365277E2,2.1958908E2,1.6867554E1,0E0,0E0,0E0,0E0,0E0,0E0,0E0,0E0],"parents":[2147483647,0,0,1,1,2,2,3,3,4,4,5,5,6,6],"right_children":[2,4,6,8,10,12,14,-1,-1,-1,-1,-1,-1,-1,-1],"split_conditions":[3.1320919E1,6E0,2.6E1,2E0,6.603751E1,4.1761227E1,2.9E1,-6.2611117E-3,3E-2,9.695338E-3,-1.2418606E-2,-2.2447975E-3,-1.6593523E-2,-1.8154897E-2,-2.4595482E-2],"split_indices":[2,1,1,6,3,2,1,0,0,0,0,0,0,0,0],"split_type":[0,0,0,0,0,0,0,0,0,0,0,0,0,0,0],"sum_hessian":[1.4113356E4,7.544047E3,6.569309E3,3.0200957E3,4.523951E3,3.8502832E3,2.7190256E3,4.1496384E2,2.6051318E3,3.596819E3,9.271323E2,1.8231453E3,2.0271381E3,5.59867E2,2.1591587E3],"tree_param":{"num_deleted":"0","num_feature":"28","num_nodes":"15","size_leaf_vector":"1"}},{"base_weights":[1.1740485E-3,4.4280848E-1,-5.023669E-1,9.064078E-1,2.0522946E-1,-3.116062E-1,-7.7879375E-1,-5.6971037E-3,3E-2,9.728977E-3,-1.3103191E-2,-2.8354481E-3,-1.7638614E-2,-1.7809372E-2,-2.4764577E-2],"categories":[],"categories_nodes":[],"categories_segments":[],"categories_sizes":[],"default_left":[0,0,0,0,0,0,0,0,0,0,0,0,0,0,0],"id":9,"left_children":[1,3,5,7,9,11,13,-1,-1,-1,-1,-1,-1,-1,-1],"loss_changes":[3.1416326E3,8.277324E2,3.4649316E2,4.6427612E2,3.8254074E2,2.3458945E2,2.0195435E1,0E0,0E0,0E0,0E0,0E0,0E0,0E0,0E0],"parents":[2147483647,0,0,1,1,2,2,3,3,4,4,5,5,6,6],"right_children":[2,4,6,8,10,12,14,-1,-1,-1,-1,-1,-1,-1,-1],"split_conditions":[3.1016125E1,5E0,2.6E1,2E0,6.9443954E1,4.4294468E1,2.9E1,-5.6971037E-3,3E-2,9.728977E-3,-1.3103191E-2,-2.8354481E-3,-1.7638614E-2,-1.7809372E-2,-2.4764577E-2],"split_indices":[2,1,1,6,3,2,1,0,0,0,0,0,0,0,0],"split_type":[0,0,0,0,0,0,0,0,0,0,0,0,0,0,0],"sum_hessian":[1.4109082E4,7.517774E3,6.591308E3,2.5404414E3,4.9773325E3,3.9091208E3,2.682187E3,3.4054025E2,2.1999011E3,4.2021187E3,7.7521387E2,2.19531E3,1.7138107E3,5.5999457E2,2.1221924E3],"tree_param":{"num_deleted":"0","num_feature":"28","num_nodes":"15","size_leaf_vector":"1"}},{"base_weights":[7.865943E-5,3.7792635E-1,-5.697231E-1,7.8096604E-1,1.2994324E-1,-4.0356672E-1,-7.8127253E-1,3E-2,6.2968214E-3,-4.6912834E-4,1.8458012E-2,-5.9529888E-3,-1.8043956E-2,-1.8411104E-2,-2.4566052E-2],"categories":[],"categories_nodes":[],"categories_segments":[],"categories_sizes":[],"default_left":[0,0,0,0,0,0,0,0,0,0,0,0,0,0,0],"id":10,"left_children":[1,3,5,7,9,11,13,-1,-1,-1,-1,-1,-1,-1,-1],"loss_changes":[3.0375876E3,8.4710925E2,1.9576733E2,5.2895996E2,3.7279398E2,1.27698425E2,1.2415894E1,0E0,0E0,0E0,0E0,0E0,0E0,0E0,0E0],"parents":[2147483647,0,0,1,1,2,2,3,3,4,4,5,5,6,6],"right_children":[2,4,6,8,10,12,14,-1,-1,-1,-1,-1,-1,-1,-1],"split_conditions":[3.44093E1,6E0,2.6E1,1E0,1E0,4.5221676E1,2.9E1,3E-2,6.2968214E-3,-4.6912834E-4,1.8458012E-2,-5.9529888E-3,-1.8043956E-2,-1.8411104E-2,-2.4566052E-2],"split_indices":[2,1,1,18,17,2,1,0,0,0,0,0,0,0,0],"split_type":[0,0,0,0,0,0,0,0,0,0,0,0,0,0,0],"sum_hessian":[1.4090806E4,8.474513E3,5.616293E3,3.2219885E3,5.2525244E3,3.1573892E3,2.458904E3,2.1216003E3,1.1003882E3,4.043786E3,1.2087385E3,1.558115E3,1.5992742E3,4.7329062E2,1.9856135E3],"tree_param":{"num_deleted":"0","num_feature":"28","num_nodes":"15","size_leaf_vector":"1"}},{"base_weights":[-2.4985333E-3,3.5829052E-1,-5.511059E-1,5.4202884E-1,-1.6086438E-1,-3.786723E-1,-7.747044E-1,-1.2100831E-2,1.9948138E-2,2.1693346E-4,-1.3955566E-2,-5.3240224E-3,-1.7132139E-2,-1.7941656E-2,-2.4446594E-2],"categories":[],"categories_nodes":[],"categories_segments":[],"categories_sizes":[],"default_left":[0,0,0,0,0,0,0,0,0,0,0,0,0,0,0],"id":11,"left_children":[1,3,5,7,9,11,13,-1,-1,-1,-1,-1,-1,-1,-1],"loss_changes":[2.7857642E3,8.1071765E2,2.1348145E2,7.3110205E2,1.1447775E2,1.2190683E2,1.4169556E1,0E0,0E0,0E0,0E0,0E0,0E0,0E0,0E0],"parents":[2147483647,0,0,1,1,2,2,3,3,4,4,5,5,6,6],"right_children":[2,4,6,8,10,12,14,-1,-1,-1,-1,-1,-1,-1,-1],"split_conditions":[3.4132095E1,1.5E1,2.6E1,2E0,5.8570435E1,4.4911022E1,2.9E1,-1.2100831E-2,1.9948138E-2,2.1693346E-4,-1.3955566E-2,-5.3240224E-3,-1.7132139E-2,-1.7941656E-2,-2.4446594E-2],"split_indices":[2,1,1,6,3,2,1,0,0,0,0,0,0,0,0],"split_type":[0,0,0,0,0,0,0,0,0,0,0,0,0,0,0],"sum_hessian":[1.4054792E4,8.4792E3,5.575592E3,6.2635845E3,2.2156155E3,3.1589797E3,2.4166118E3,7.18356E2,5.5452285E3,1.42944E3,7.861756E2,1.5516967E3,1.6072832E3,4.68954E2,1.947658E3],"tree_param":{"num_deleted":"0","num_feature":"28","num_nodes":"15","size_leaf_vector":"1"}},{"base_weights":[5.4011215E-3,3.551434E-1,-5.305131E-1,7.2997487E-1,1.1825139E-1,-3.5723138E-1,-7.602011E-1,3E-2,5.6821266E-3,-7.0383784E-4,1.7685125E-2,-4.738142E-3,-1.6621426E-2,-1.7232597E-2,-2.4106147E-2],"categories":[],"categories_nodes":[],"categories_segments":[],"categories_sizes":[],"default_left":[0,0,0,0,0,0,0,0,0,0,0,0,0,0,0],"id":12,"left_children":[1,3,5,7,9,11,13,-1,-1,-1,-1,-1,-1,-1,-1],"loss_changes":[2.6422607E3,7.567554E2,2.1984802E2,4.8672986E2,3.5074945E2,1.24377045E2,1.6327637E1,0E0,0E0,0E0,0E0,0E0,0E0,0E0,0E0],"parents":[2147483647,0,0,1,1,2,2,3,3,4,4,5,5,6,6],"right_children":[2,4,6,8,10,12,14,-1,-1,-1,-1,-1,-1,-1,-1],"split_conditions":[3.4E1,6E0,2.6E1,1E0,1E0,4.4911022E1,2.9E1,3E-2,5.6821266E-3,-7.0383784E-4,1.7685125E-2,-4.738142E-3,-1.6621426E-2,-1.7232597E-2,-2.4106147E-2],"split_indices":[2,1,1,18,17,2,1,0,0,0,0,0,0,0,0],"split_type":[0,0,0,0,0,0,0,0,0,0,0,0,0,0,0],"sum_hessian":[1.4078806E4,8.521212E3,5.5575933E3,3.293806E3,5.2274062E3,3.1783625E3,2.3792307E3,2.1825032E3,1.1113026E3,4.022032E3,1.2053744E3,1.5865099E3,1.5918525E3,4.6947632E2,1.9097545E3],"tree_param":{"num_deleted":"0","num_feature":"28","num_nodes":"15","size_leaf_vector":"1"}},{"base_weights":[5.390252E-3,3.4014025E-1,-5.377064E-1,4.987514E-1,-1.8663009E-1,-3.6942005E-1,-7.5918925E-1,-1.2697935E-2,1.8399647E-2,-8.1368303E-4,-1.4133436E-2,-6.616905E-3,-1.786029E-2,-2.5204433E-2,-2.0208757E-2],"categories":[],"categories_nodes":[],"categories_segments":[],"categories_sizes":[],"default_left":[0,0,0,0,0,0,0,0,0,0,0,0,0,0,0],"id":13,"left_children":[1,3,5,7,9,11,13,-1,-1,-1,-1,-1,-1,-1,-1],"loss_changes":[2.560262E3,7.289948E2,1.9839587E2,7.099044E2,9.1624954E1,1.0228937E2,1.2599609E1,0E0,0E0,0E0,0E0,0E0,0E0,0E0,0E0],"parents":[2147483647,0,0,1,1,2,2,3,3,4,4,5,5,6,6],"right_children":[2,4,6,8,10,12,14,-1,-1,-1,-1,-1,-1,-1,-1],"split_conditions":[3.44093E1,1.6E1,2.6E1,2E0,5.9036243E1,4.9648766E1,1E0,-1.2697935E-2,1.8399647E-2,-8.1368303E-4,-1.4133436E-2,-6.616905E-3,-1.786029E-2,-2.5204433E-2,-2.0208757E-2],"split_indices":[2,1,1,6,3,2,10,0,0,0,0,0,0,0,0],"split_type":[0,0,0,0,0,0,0,0,0,0,0,0,0,0,0],"sum_hessian":[1.4064307E4,8.703395E3,5.360912E3,6.6905923E3,2.0128018E3,3.0573105E3,2.3036016E3,7.369768E2,5.9536157E3,1.2955881E3,7.172137E2,1.8521439E3,1.2051667E3,1.1519631E3,1.1516385E3],"tree_param":{"num_deleted":"0","num_feature":"28","num_nodes":"15","size_leaf_vector":"1"}},{"base_weights":[2.9278971E-4,3.193318E-1,-5.374436E-1,4.8546615E-1,-6.071879E-2,-3.2481423E-1,-6.716067E-1,1.9684581E-2,-6.0464256E-4,3E-2,-3.6017522E-3,-4.0249014E-3,-1.7581511E-2,-1.6408106E-2,-2.3470348E-2],"categories":[],"categories_nodes":[],"categories_segments":[],"categories_sizes":[],"default_left":[0,0,0,0,0,0,0,0,0,0,0,0,0,0,0],"id":14,"left_children":[1,3,5,7,9,11,13,-1,-1,-1,-1,-1,-1,-1,-1],"loss_changes":[2.4192395E3,5.594479E2,1.4833337E2,5.3231396E2,1.7914362E2,1.0138005E2,4.173523E1,0E0,0E0,0E0,0E0,0E0,0E0,0E0,0E0],"parents":[2147483647,0,0,1,1,2,2,3,3,4,4,5,5,6,6],"right_children":[2,4,6,8,10,12,14,-1,-1,-1,-1,-1,-1,-1,-1],"split_conditions":[3.4655445E1,4.748955E1,4.4294468E1,1E0,5.0990195E0,3.6469234E1,2.496279E1,1.9684581E-2,-6.0464256E-4,3E-2,-3.6017522E-3,-4.0249014E-3,-1.7581511E-2,-1.6408106E-2,-2.3470348E-2],"split_indices":[2,4,2,18,2,4,4,0,0,0,0,0,0,0,0],"split_type":[0,0,0,0,0,0,0,0,0,0,0,0,0,0,0],"sum_hessian":[1.4082976E4,8.841277E3,5.241698E3,6.15222E3,2.6890571E3,2.0379529E3,3.2037456E3,4.5992954E3,1.5529247E3,1.3048964E2,2.5585674E3,1.1850514E3,8.529014E2,1.5270211E3,1.6767245E3],"tree_param":{"num_deleted":"0","num_feature":"28","num_nodes":"15","size_leaf_vector":"1"}},{"base_weights":[2.6194463E-4,3.5757953E-1,-4.6092087E-1,7.252015E-1,1.5875986E-1,-2.8473133E-1,-7.346566E-1,2.9695036E-2,6.9894316E-3,6.864361E-4,1.9599058E-2,-3.1282133E-3,-1.6455427E-2,-1.663525E-2,-2.3433559E-2],"categories":[],"categories_nodes":[],"categories_segments":[],"categories_sizes":[],"default_left":[0,0,0,0,0,0,0,0,0,0,0,0,0,0,0],"id":15,"left_children":[1,3,5,7,9,11,13,-1,-1,-1,-1,-1,-1,-1,-1],"loss_changes":[2.3215837E3,5.794073E2,2.952494E2,3.6084302E2,3.4684082E2,1.7826724E2,1.7401001E1,0E0,0E0,0E0,0E0,0E0,0E0,0E0,0E0],"parents":[2147483647,0,0,1,1,2,2,3,3,4,4,5,5,6,6],"right_children":[2,4,6,8,10,12,14,-1,-1,-1,-1,-1,-1,-1,-1],"split_conditions":[3.1016125E1,5E0,2.6E1,1E0,1E0,4.4911022E1,2.9E1,2.9695036E-2,6.9894316E-3,6.864361E-4,1.9599058E-2,-3.1282133E-3,-1.6455427E-2,-1.663525E-2,-2.3433559E-2],"split_indices":[2,1,1,18,17,2,1,0,0,0,0,0,0,0,0],"split_type":[0,0,0,0,0,0,0,0,0,0,0,0,0,0,0],"sum_hessian":[1.4069266E4,7.928982E3,6.1402837E3,2.7761545E3,5.1528276E3,3.7448792E3,2.3954045E3,1.800539E3,9.756155E2,4.0483196E3,1.1045079E3,2.230309E3,1.5145701E3,5.1035336E2,1.8850511E3],"tree_param":{"num_deleted":"0","num_feature":"28","num_nodes":"15","size_leaf_vector":"1"}},{"base_weights":[-9.928785E-4,2.760762E-1,-5.1324433E-1,-4.1194403E-1,3.898837E-1,-3.0202425E-1,-7.192394E-1,-1.766621E-2,-7.902266E-3,-1.284897E-2,1.450378E-2,-1.7651362E-2,-6.5408126E-3,-2.4268737E-2,-1.87828E-2],"categories":[],"categories_nodes":[],"categories_segments":[],"categories_sizes":[],"default_left":[0,0,0,0,0,0,0,0,0,0,0,0,0,0,0],"id":16,"left_children":[1,3,5,7,9,11,13,-1,-1,-1,-1,-1,-1,-1,-1],"loss_changes":[1.9972344E3,7.162637E2,2.1351123E2,3.3180878E1,6.018618E2,5.830751E1,1.779541E1,0E0,0E0,0E0,0E0,0E0,0E0,0E0,0E0],"parents":[2147483647,0,0,1,1,2,2,3,3,4,4,5,5,6,6],"right_children":[2,4,6,8,10,12,14,-1,-1,-1,-1,-1,-1,-1,-1],"split_conditions":[1.8E1,5.1E1,2.6E1,3.7E1,2E0,5.1E1,1E0,-1.766621E-2,-7.902266E-3,-1.284897E-2,1.450378E-2,-1.7651362E-2,-6.5408126E-3,-2.4268737E-2,-1.87828E-2],"split_indices":[1,0,1,0,6,0,10,0,0,0,0,0,0,0,0],"split_type":[0,0,0,0,0,0,0,0,0,0,0,0,0,0,0],"sum_hessian":[1.4050489E4,9.1193E3,4.931189E3,1.2911824E3,7.828117E3,2.44382E3,2.4873691E3,5.7884576E2,7.123366E2,8.003905E2,7.027727E3,5.440711E2,1.8997489E3,1.2394078E3,1.2479613E3],"tree_param":{"num_deleted":"0","num_feature":"28","num_nodes":"15","size_leaf_vector":"1"}},{"base_weights":[-1.3155331E-3,3.2708073E-1,-4.433411E-1,6.257745E-1,1.0546146E-1,-2.714138E-1,-7.192199E-1,2.6061594E-2,4.2421897E-3,-7.81642E-4,1.6464328E-2,-2.9998384E-3,-1.580838E-2,-1.6484903E-2,-2.2902703E-2],"categories":[],"categories_nodes":[],"categories_segments":[],"categories_sizes":[],"default_left":[0,0,0,0,0,0,0,0,0,0,0,0,0,0,0],"id":17,"left_children":[1,3,5,7,9,11,13,-1,-1,-1,-1,-1,-1,-1,-1],"loss_changes":[2.042649E3,5.337157E2,2.832788E2,4.0313855E2,2.7173315E2,1.6203448E2,1.461853E1,0E0,0E0,0E0,0E0,0E0,0E0,0E0,0E0],"parents":[2147483647,0,0,1,1,2,2,3,3,4,4,5,5,6,6],"right_children":[2,4,6,8,10,12,14,-1,-1,-1,-1,-1,-1,-1,-1],"split_conditions":[3.1016125E1,6E0,2.6E1,1E0,1E0,4.4911022E1,2.9E1,2.6061594E-2,4.2421897E-3,-7.81642E-4,1.6464328E-2,-2.9998384E-3,-1.580838E-2,-1.6484903E-2,-2.2902703E-2],"split_indices":[2,1,1,18,17,2,1,0,0,0,0,0,0,0,0],"split_type":[0,0,0,0,0,0,0,0,0,0,0,0,0,0,0],"sum_hessian":[1.4051209E4,8.061731E3,5.9894785E3,3.4276672E3,4.634064E3,3.698931E3,2.2905474E3,2.2785178E3,1.1491493E3,3.576946E3,1.0571177E3,2.2205786E3,1.4783524E3,4.934517E2,1.7970957E3],"tree_param":{"num_deleted":"0","num_feature":"28","num_nodes":"15","size_leaf_vector":"1"}},{"base_weights":[1.2310939E-3,2.7610663E-1,-4.9210334E-1,4.3226734E-1,-1.2664321E-1,-3.269514E-1,-7.2200876E-1,1.7697234E-2,-5.243259E-4,1.1286295E-3,-1.2714833E-2,-3.9593205E-3,-1.5643775E-2,-2.4342744E-2,-1.8856877E-2],"categories":[],"categories_nodes":[],"categories_segments":[],"categories_sizes":[],"default_left":[0,0,0,0,0,0,0,0,0,0,0,0,0,0,0],"id":18,"left_children":[1,3,5,7,9,11,13,-1,-1,-1,-1,-1,-1,-1,-1],"loss_changes":[1.9074602E3,5.6887634E2,1.8959924E2,4.6224988E2,1.2420557E2,1.1107587E2,1.444751E1,0E0,0E0,0E0,0E0,0E0,0E0,0E0,0E0],"parents":[2147483647,0,0,1,1,2,2,3,3,4,4,5,5,6,6],"right_children":[2,4,6,8,10,12,14,-1,-1,-1,-1,-1,-1,-1,-1],"split_conditions":[3.44093E1,1.4E1,2.6E1,1E0,5.697613E1,4.4911022E1,1E0,1.7697234E-2,-5.243259E-4,1.1286295E-3,-1.2714833E-2,-3.9593205E-3,-1.5643775E-2,-2.4342744E-2,-1.8856877E-2],"split_indices":[2,1,1,18,4,2,10,0,0,0,0,0,0,0,0],"split_type":[0,0,0,0,0,0,0,0,0,0,0,0,0,0,0],"sum_hessian":[1.4046938E4,9.023434E3,5.0235044E3,6.5032935E3,2.5201404E3,2.9338074E3,2.089697E3,4.815282E3,1.6880112E3,1.6247832E3,8.953571E2,1.4721028E3,1.4617047E3,1.040217E3,1.04948E3],"tree_param":{"num_deleted":"0","num_feature":"28","num_nodes":"15","size_leaf_vector":"1"}},{"base_weights":[-0E0,2.677927E-1,-4.9043137E-1,-4.6281654E-1,3.4308267E-1,-2.777893E-1,-6.1458063E-1,3E-2,-1.570563E-2,7.441867E-3,3E-2,-4.465731E-3,-1.8982764E-2,-1.4174341E-2,-2.2013882E-2],"categories":[],"categories_nodes":[],"categories_segments":[],"categories_sizes":[],"default_left":[0,0,0,0,0,0,0,0,0,0,0,0,0,0,0],"id":19,"left_children":[1,3,5,7,9,11,13,-1,-1,-1,-1,-1,-1,-1,-1],"loss_changes":[1.8451409E3,5.0124182E2,1.2981958E2,8.436937E1,7.508942E2,8.38667E1,5.0821167E1,0E0,0E0,0E0,0E0,0E0,0E0,0E0,0E0],"parents":[2147483647,0,0,1,1,2,2,3,3,4,4,5,5,6,6],"right_children":[2,4,6,8,10,12,14,-1,-1,-1,-1,-1,-1,-1,-1],"split_conditions":[3.44093E1,2E0,4.3185646E1,4.2426405E0,1E0,4.3025066E1,2.427444E1,3E-2,-1.570563E-2,7.441867E-3,3E-2,-4.465731E-3,-1.8982764E-2,-1.4174341E-2,-2.2013882E-2],"split_indices":[2,6,2,2,5,4,4,0,0,0,0,0,0,0,0],"split_type":[0,0,0,0,0,0,0,0,0,0,0,0,0,0,0],"sum_hessian":[1.4028721E4,9.075876E3,4.952844E3,8.44085E2,8.231791E3,1.8351232E3,3.1177212E3,2.7499063E1,8.1658594E2,7.620277E3,6.115142E2,1.3539662E3,4.8115707E2,1.4387865E3,1.6789346E3],"tree_param":{"num_deleted":"0","num_feature":"28","num_nodes":"15","size_leaf_vector":"1"}},{"base_weights":[-9.91931E-4,2.9236832E-1,-4.1791305E-1,3.8960794E-1,-3.2832858E-1,-1.6570061E-1,-5.7133114E-1,3E-2,9.27784E-3,-4.8481915E-3,-1.6311126E-2,-2.1212588E-3,-1.873726E-2,-1.2887299E-2,-2.0520285E-2],"categories":[],"categories_nodes":[],"categories_segments":[],"categories_sizes":[],"default_left":[0,0,0,0,0,0,0,0,0,0,0,0,0,0,0],"id":20,"left_children":[1,3,5,7,9,11,13,-1,-1,-1,-1,-1,-1,-1,-1],"loss_changes":[1.7201975E3,4.9932855E2,2.2401666E2,4.6337134E2,3.970733E1,9.617787E1,5.5808838E1,0E0,0E0,0E0,0E0,0E0,0E0,0E0,0E0],"parents":[2147483647,0,0,1,1,2,2,3,3,4,4,5,5,6,6],"right_children":[2,4,6,8,10,12,14,-1,-1,-1,-1,-1,-1,-1,-1],"split_conditions":[3.1016125E1,6.453665E1,4.0311287E1,6.708204E0,7.6504265E1,5.090614E1,2.427444E1,3E-2,9.27784E-3,-4.8481915E-3,-1.6311126E-2,-2.1212588E-3,-1.873726E-2,-1.2887299E-2,-2.0520285E-2],"split_indices":[2,3,2,2,3,3,3,0,0,0,0,0,0,0,0],"split_type":[0,0,0,0,0,0,0,0,0,0,0,0,0,0,0],"sum_hessian":[1.4042999E4,8.242959E3,5.80004E3,7.129482E3,1.1134767E3,2.2002678E3,3.599772E3,5.794384E2,6.5500435E3,6.355117E2,4.779649E2,1.8299977E3,3.702701E2,1.609933E3,1.9898391E3],"tree_param":{"num_deleted":"0","num_feature":"28","num_nodes":"15","size_leaf_vector":"1"}},{"base_weights":[5.0785933E-3,2.4520048E-1,-4.8021328E-1,3.867569E-1,-1.6690345E-1,-3.508243E-1,-7.3211956E-1,-1.237974E-2,1.4478496E-2,-1.0361838E-3,-1.3157068E-2,-6.4501665E-3,-1.7051615E-2,-2.52553E-2,-1.8505128E-2],"categories":[],"categories_nodes":[],"categories_segments":[],"categories_sizes":[],"default_left":[0,0,0,0,0,0,0,0,0,0,0,0,0,0,0],"id":21,"left_children":[1,3,5,7,9,11,13,-1,-1,-1,-1,-1,-1,-1,-1],"loss_changes":[1.6361248E3,5.487102E2,1.4991699E2,5.377706E2,8.643197E1,9.0386444E1,1.67193E1,0E0,0E0,0E0,0E0,0E0,0E0,0E0,0E0],"parents":[2147483647,0,0,1,1,2,2,3,3,4,4,5,5,6,6],"right_children":[2,4,6,8,10,12,14,-1,-1,-1,-1,-1,-1,-1,-1],"split_conditions":[3.522783E1,1.5E1,2.9E1,2E0,5.8570435E1,5.032892E1,1E0,-1.237974E-2,1.4478496E-2,-1.0361838E-3,-1.3157068E-2,-6.4501665E-3,-1.7051615E-2,-2.52553E-2,-1.8505128E-2],"split_indices":[2,1,1,6,3,2,10,0,0,0,0,0,0,0,0],"split_type":[0,0,0,0,0,0,0,0,0,0,0,0,0,0,0],"sum_hessian":[1.4020648E4,9.382642E3,4.638007E3,6.9853755E3,2.3972656E3,3.0755938E3,1.562413E3,7.4498364E2,6.240392E3,1.6183018E3,7.78964E2,1.9029865E3,1.1726074E3,7.777962E2,7.8461676E2],"tree_param":{"num_deleted":"0","num_feature":"28","num_nodes":"15","size_leaf_vector":"1"}},{"base_weights":[2.842229E-3,2.4952343E-1,-4.3623567E-1,1E0,1.92584E-1,-1.6356917E-1,-5.564068E-1,3E-2,-1.0447904E-2,-1.650259E-2,7.84783E-3,-2.188159E-3,-1.9010441E-2,-1.3304045E-2,-2.080411E-2],"categories":[],"categories_nodes":[],"categories_segments":[],"categories_sizes":[],"default_left":[0,0,0,0,0,0,0,0,0,0,0,0,0,0,0],"id":22,"left_children":[1,3,5,7,9,11,13,-1,-1,-1,-1,-1,-1,-1,-1],"loss_changes":[1.5206273E3,4.4922247E2,1.6468628E2,1.4354321E2,4.3520557E2,6.622063E1,5.232312E1,0E0,0E0,0E0,0E0,0E0,0E0,0E0,0E0],"parents":[2147483647,0,0,1,1,2,2,3,3,4,4,5,5,6,6],"right_children":[2,4,6,8,10,12,14,-1,-1,-1,-1,-1,-1,-1,-1],"split_conditions":[3.3286633E1,6E0,4.0311287E1,1E0,2E0,5.090614E1,2.8539986E1,3E-2,-1.0447904E-2,-1.650259E-2,7.84783E-3,-2.188159E-3,-1.9010441E-2,-1.3304045E-2,-2.080411E-2],"split_indices":[2,2,2,19,6,3,3,0,0,0,0,0,0,0,0],"split_type":[0,0,0,0,0,0,0,0,0,0,0,0,0,0,0],"sum_hessian":[1.4019094E4,8.978898E3,5.040195E3,5.24147E2,8.454752E3,1.5480657E3,3.4921294E3,4.4899417E2,7.5152794E1,7.143557E2,7.740396E3,1.3050065E3,2.4305925E2,1.9314907E3,1.5606387E3],"tree_param":{"num_deleted":"0","num_feature":"28","num_nodes":"15","size_leaf_vector":"1"}},{"base_weights":[7.215704E-3,2.0828463E-1,-5.185219E-1,1E0,1.6140205E-1,-3.5101256E-1,-6.337578E-1,3E-2,-1.0149175E-2,-1.6329505E-2,6.6826E-3,-3.3010317E-3,-1.5398517E-2,-1.3673384E-2,-2.1173771E-2],"categories":[],"categories_nodes":[],"categories_segments":[],"categories_sizes":[],"default_left":[0,0,0,0,0,0,0,0,0,0,0,0,0,0,0],"id":23,"left_children":[1,3,5,7,9,11,13,-1,-1,-1,-1,-1,-1,-1,-1],"loss_changes":[1.4825288E3,4.483731E2,7.345679E1,1.3511627E2,4.2067792E2,6.2014343E1,2.7305664E1,0E0,0E0,0E0,0E0,0E0,0E0,0E0,0E0],"parents":[2147483647,0,0,1,1,2,2,3,3,4,4,5,5,6,6],"right_children":[2,4,6,8,10,12,14,-1,-1,-1,-1,-1,-1,-1,-1],"split_conditions":[3.827532E1,5.8309517E0,2.3025492E1,1E0,2E0,5.032892E1,4.3829212E1,3E-2,-1.0149175E-2,-1.6329505E-2,6.6826E-3,-3.3010317E-3,-1.5398517E-2,-1.3673384E-2,-2.1173771E-2],"split_indices":[2,2,3,19,6,2,2,0,0,0,0,0,0,0,0],"split_type":[0,0,0,0,0,0,0,0,0,0,0,0,0,0,0],"sum_hessian":[1.4004416E4,1.0133788E4,3.8706287E3,4.5584863E2,9.677939E3,1.5900632E3,2.2805654E3,3.8418033E2,7.166829E1,7.6929877E2,8.908641E3,6.457678E2,9.442955E2,6.7275116E2,1.6078142E3],"tree_param":{"num_deleted":"0","num_feature":"28","num_nodes":"15","size_leaf_vector":"1"}},{"base_weights":[1.5263334E-3,2.2629774E-1,-4.6473467E-1,-3.4314337E-1,3.081077E-1,-2.7820337E-1,-6.655928E-1,-1.6443452E-2,-5.3249393E-3,-1.2468039E-2,1.1532028E-2,-3.7656655E-3,-1.2461312E-2,-2.2732425E-2,-1.7117592E-2],"categories":[],"categories_nodes":[],"categories_segments":[],"categories_sizes":[],"default_left":[0,0,0,0,0,0,0,0,0,0,0,0,0,0,0],"id":24,"left_children":[1,3,5,7,9,11,13,-1,-1,-1,-1,-1,-1,-1,-1],"loss_changes":[1.4693612E3,4.417394E2,1.6962036E2,3.983188E1,4.5840533E2,4.941356E1,1.6558838E1,0E0,0E0,0E0,0E0,0E0,0E0,0E0,0E0],"parents":[2147483647,0,0,1,1,2,2,3,3,4,4,5,5,6,6],"right_children":[2,4,6,8,10,12,14,-1,-1,-1,-1,-1,-1,-1,-1],"split_conditions":[1.8E1,5.1E1,2.6E1,3.7E1,2E0,1E0,1E0,-1.6443452E-2,-5.3249393E-3,-1.2468039E-2,1.1532028E-2,-3.7656655E-3,-1.2461312E-2,-2.2732425E-2,-1.7117592E-2],"split_indices":[1,0,1,0,6,20,10,0,0,0,0,0,0,0,0],"split_type":[0,0,0,0,0,0,0,0,0,0,0,0,0,0,0],"sum_hessian":[1.4000152E4,9.449506E3,4.5506465E3,1.1834851E3,8.266021E3,2.3688271E3,2.1818193E3,5.20737E2,6.627481E2,7.848174E2,7.4812036E3,1.1290719E3,1.2397552E3,1.0822777E3,1.0995415E3],"tree_param":{"num_deleted":"0","num_feature":"28","num_nodes":"15","size_leaf_vector":"1"}},{"base_weights":[-3.7326796E-3,2.5889847E-1,-3.7450516E-1,3.472098E-1,-3.1611815E-1,-1.756855E-1,-5.852454E-1,1.4633013E-2,-2.465636E-3,3E-2,-1.0280198E-2,-1.6802046E-3,-1.5511953E-2,-1.4748621E-2,-2.1837778E-2],"categories":[],"categories_nodes":[],"categories_segments":[],"categories_sizes":[],"default_left":[0,0,0,0,0,0,0,0,0,0,0,0,0,0,0],"id":25,"left_children":[1,3,5,7,9,11,13,-1,-1,-1,-1,-1,-1,-1,-1],"loss_changes":[1.3663357E3,4.180039E2,2.4302423E2,4.304663E2,4.367195E1,1.2265737E2,3.5538025E1,0E0,0E0,0E0,0E0,0E0,0E0,0E0,0E0],"parents":[2147483647,0,0,1,1,2,2,3,3,4,4,5,5,6,6],"right_children":[2,4,6,8,10,12,14,-1,-1,-1,-1,-1,-1,-1,-1],"split_conditions":[3.0016663E1,6.453665E1,4.3416588E1,1E0,4E0,4.3919075E1,2.974488E1,1.4633013E-2,-2.465636E-3,3E-2,-1.0280198E-2,-1.6802046E-3,-1.5511953E-2,-1.4748621E-2,-2.1837778E-2],"split_indices":[2,3,2,18,2,3,3,0,0,0,0,0,0,0,0],"split_type":[0,0,0,0,0,0,0,0,0,0,0,0,0,0,0],"sum_hessian":[1.4008922E4,8.200212E3,5.80871E3,7.111678E3,1.0885339E3,2.9963809E3,2.8123293E3,5.35856E3,1.7531182E3,1.5335823E1,1.0731981E3,2.2253967E3,7.70984E2,1.7173577E3,1.0949717E3],"tree_param":{"num_deleted":"0","num_feature":"28","num_nodes":"15","size_leaf_vector":"1"}},{"base_weights":[6.567241E-3,2.1919493E-1,-4.4733536E-1,-3.2916555E-1,2.9551616E-1,-2.9176778E-1,-6.9183636E-1,-1.4452001E-2,-4.4699777E-3,-1.2487534E-2,1.10794455E-2,-4.2319926E-3,-1.2844853E-2,-2.3760999E-2,-1.7636327E-2],"categories":[],"categories_nodes":[],"categories_segments":[],"categories_sizes":[],"default_left":[0,0,0,0,0,0,0,0,0,0,0,0,0,0,0],"id":26,"left_children":[1,3,5,7,9,11,13,-1,-1,-1,-1,-1,-1,-1,-1],"loss_changes":[1.3522906E3,4.003058E2,1.6872601E2,3.1622093E1,4.4160223E2,5.598044E1,1.5227539E1,0E0,0E0,0E0,0E0,0E0,0E0,0E0,0E0],"parents":[2147483647,0,0,1,1,2,2,3,3,4,4,5,5,6,6],"right_children":[2,4,6,8,10,12,14,-1,-1,-1,-1,-1,-1,-1,-1],"split_conditions":[1.8E1,5.1E1,2.8E1,4E1,2E0,1E0,1E0,-1.4452001E-2,-4.4699777E-3,-1.2487534E-2,1.10794455E-2,-4.2319926E-3,-1.2844853E-2,-2.3760999E-2,-1.7636327E-2],"split_indices":[1,0,1,0,6,20,10,0,0,0,0,0,0,0,0],"split_type":[0,0,0,0,0,0,0,0,0,0,0,0,0,0,0],"sum_hessian":[1.3991015E4,9.531023E3,4.4599907E3,1.1608348E3,8.370188E3,2.7356304E3,1.7243604E3,6.2086786E2,5.39967E2,7.8275305E2,7.5874355E3,1.3080614E3,1.4275688E3,8.5417126E2,8.701891E2],"tree_param":{"num_deleted":"0","num_feature":"28","num_nodes":"15","size_leaf_vector":"1"}},{"base_weights":[1.2812512E-3,2.0522475E-1,-4.432343E-1,1E0,1.537594E-1,-2.532332E-1,-6.5525085E-1,3E-2,-1.0755017E-2,-1.5903965E-2,6.3341837E-3,-3.1306127E-3,-1.1676624E-2,-1.680972E-2,-2.246326E-2],"categories":[],"categories_nodes":[],"categories_segments":[],"categories_sizes":[],"default_left":[0,0,0,0,0,0,0,0,0,0,0,0,0,0,0],"id":27,"left_children":[1,3,5,7,9,11,13,-1,-1,-1,-1,-1,-1,-1,-1],"loss_changes":[1.2707588E3,4.1141068E2,1.7645428E2,1.4775555E2,3.566208E2,4.7011627E1,1.5912842E1,0E0,0E0,0E0,0E0,0E0,0E0,0E0,0E0],"parents":[2147483647,0,0,1,1,2,2,3,3,4,4,5,5,6,6],"right_children":[2,4,6,8,10,12,14,-1,-1,-1,-1,-1,-1,-1,-1],"split_conditions":[1.8E1,6E0,2.6E1,1E0,2E0,1E0,1E0,3E-2,-1.0755017E-2,-1.5903965E-2,6.3341837E-3,-3.1306127E-3,-1.1676624E-2,-1.680972E-2,-2.246326E-2],"split_indices":[1,2,1,19,6,20,12,0,0,0,0,0,0,0,0],"split_type":[0,0,0,0,0,0,0,0,0,0,0,0,0,0,0],"sum_hessian":[1.3996603E4,9.597975E3,4.3986284E3,5.496541E2,9.04832E3,2.3285632E3,2.0700652E3,4.7344556E2,7.6208565E1,6.955703E2,8.35275E3,1.1192864E3,1.2092767E3,1.0521279E3,1.0179372E3],"tree_param":{"num_deleted":"0","num_feature":"28","num_nodes":"15","size_leaf_vector":"1"}},{"base_weights":[-2.7252121E-3,1.8325083E-1,-4.620241E-1,2.612648E-1,-3.2794628E-1,-3.10203E-1,-6.766478E-1,1.0905874E-2,-3.3311408E-3,-5.907061E-3,-1.5844524E-2,-4.3205167E-3,-1.3933145E-2,-2.3615966E-2,-1.6877204E-2],"categories":[],"categories_nodes":[],"categories_segments":[],"categories_sizes":[],"default_left":[0,0,0,0,0,0,0,0,0,0,0,0,0,0,0],"id":28,"left_children":[1,3,5,7,9,11,13,-1,-1,-1,-1,-1,-1,-1,-1],"loss_changes":[1.1958662E3,3.9805176E2,1.3017401E2,3.2973706E2,3.4042313E1,6.0458374E1,1.8317993E1,0E0,0E0,0E0,0E0,0E0,0E0,0E0,0E0],"parents":[2147483647,0,0,1,1,2,2,3,3,4,4,5,5,6,6],"right_children":[2,4,6,8,10,12,14,-1,-1,-1,-1,-1,-1,-1,-1],"split_conditions":[1.9E1,3.8948685E1,2.8E1,1E0,5.400926E1,1E0,1E0,1.0905874E-2,-3.3311408E-3,-5.907061E-3,-1.5844524E-2,-4.3205167E-3,-1.3933145E-2,-2.3615966E-2,-1.6877204E-2],"split_indices":[1,2,1,18,2,20,10,0,0,0,0,0,0,0,0],"split_type":[0,0,0,0,0,0,0,0,0,0,0,0,0,0,0],"sum_hessian":[1.3974391E4,9.948207E3,4.026184E3,8.634842E3,1.3133652E3,2.368743E3,1.6574412E3,6.775813E3,1.8590284E3,8.0324615E2,5.101191E2,1.148124E3,1.2206188E3,8.204001E2,8.3704114E2],"tree_param":{"num_deleted":"0","num_feature":"28","num_nodes":"15","size_leaf_vector":"1"}},{"base_weights":[6.449299E-3,1.8409652E-1,-4.653014E-1,3.9771345E-1,-2.3428585E-2,-3.4382132E-1,-6.9914585E-1,1.6952505E-2,-1.5313918E-4,-4.406957E-3,9.904898E-3,-5.5754534E-3,-1.4909858E-2,-2.449434E-2,-1.7340682E-2],"categories":[],"categories_nodes":[],"categories_segments":[],"categories_sizes":[],"default_left":[0,0,0,0,0,0,0,0,0,0,0,0,0,0,0],"id":29,"left_children":[1,3,5,7,9,11,13,-1,-1,-1,-1,-1,-1,-1,-1],"loss_changes":[1.1726954E3,4.510792E2,1.0728113E2,3.3836542E2,2.259869E2,6.067978E1,1.5634399E1,0E0,0E0,0E0,0E0,0E0,0E0,0E0,0E0],"parents":[2147483647,0,0,1,1,2,2,3,3,4,4,5,5,6,6],"right_children":[2,4,6,8,10,12,14,-1,-1,-1,-1,-1,-1,-1,-1],"split_conditions":[3.7161808E1,8E0,2.9E1,1E0,1E0,4.738143E1,1E0,1.6952505E-2,-1.5313918E-4,-4.406957E-3,9.904898E-3,-5.5754534E-3,-1.4909858E-2,-2.449434E-2,-1.7340682E-2],"split_indices":[2,1,1,18,17,2,10,0,0,0,0,0,0,0,0],"split_type":[0,0,0,0,0,0,0,0,0,0,0,0,0,0,0],"sum_hessian":[1.3971987E4,1.0153668E4,3.8183193E3,5.0024683E3,5.151199E3,2.524759E3,1.2935604E3,3.5336777E3,1.4687909E3,3.8221716E3,1.3290275E3,1.2518574E3,1.2729016E3,6.364208E2,6.571397E2],"tree_param":{"num_deleted":"0","num_feature":"28","num_nodes":"15","size_leaf_vector":"1"}},{"base_weights":[1.2605134E-3,1.5775287E-1,-4.9732086E-1,2.3465994E-1,-3.218939E-1,-3.4591633E-1,-6.582913E-1,-1.3574005E-2,9.0353405E-3,-2.409389E-2,-8.024891E-3,-6.2738378E-3,-1.4276555E-2,-2.2930328E-2,-1.6514814E-2],"categories":[],"categories_nodes":[],"categories_segments":[],"categories_sizes":[],"default_left":[0,0,0,0,0,0,0,0,0,0,0,0,0,0,0],"id":30,"left_children":[1,3,5,7,9,11,13,-1,-1,-1,-1,-1,-1,-1,-1],"loss_changes":[1.0906791E3,3.9323102E2,7.9945984E1,4.2055472E2,3.752707E1,3.0227966E1,1.5856018E1,0E0,0E0,0E0,0E0,0E0,0E0,0E0,0E0],"parents":[2147483647,0,0,1,1,2,2,3,3,4,4,5,5,6,6],"right_children":[2,4,6,8,10,12,14,-1,-1,-1,-1,-1,-1,-1,-1],"split_conditions":[2.1E1,3.8948685E1,2.8E1,2E0,3E0,1E0,1E0,-1.3574005E-2,9.0353405E-3,-2.409389E-2,-8.024891E-3,-6.2738378E-3,-1.4276555E-2,-2.2930328E-2,-1.6514814E-2],"split_indices":[1,2,1,6,6,20,10,0,0,0,0,0,0,0,0],"split_type":[0,0,0,0,0,0,0,0,0,0,0,0,0,0,0],"sum_hessian":[1.3957393E4,1.062734E4,3.3300532E3,9.162796E3,1.464544E3,1.728152E3,1.6019012E3,8.046572E2,8.358139E3,1.3894801E2,1.325596E3,8.5242487E2,8.7572705E2,7.855567E2,8.163446E2],"tree_param":{"num_deleted":"0","num_feature":"28","num_nodes":"15","size_leaf_vector":"1"}},{"base_weights":[7.4498407E-3,2.221126E-1,-3.4800673E-1,2.9849622E-1,-2.9840624E-1,-2.293135E-1,-6.7364514E-1,3E-2,7.321877E-3,-3.6528984E-3,-1.5793664E-2,-3.1512454E-3,-1.309447E-2,-2.3625005E-2,-1.6752843E-2],"categories":[],"categories_nodes":[],"categories_segments":[],"categories_sizes":[],"default_left":[0,0,0,0,0,0,0,0,0,0,0,0,0,0,0],"id":31,"left_children":[1,3,5,7,9,11,13,-1,-1,-1,-1,-1,-1,-1,-1],"loss_changes":[1.0672496E3,3.476215E2,2.0258838E2,4.0176318E2,4.4652428E1,9.933751E1,1.5734619E1,0E0,0E0,0E0,0E0,0E0,0E0,0E0,0E0],"parents":[2147483647,0,0,1,1,2,2,3,3,4,4,5,5,6,6],"right_children":[2,4,6,8,10,12,14,-1,-1,-1,-1,-1,-1,-1,-1],"split_conditions":[3.1016125E1,6.453665E1,2.9E1,5.8309517E0,7.6504265E1,4.4911022E1,1E0,3E-2,7.321877E-3,-3.6528984E-3,-1.5793664E-2,-3.1512454E-3,-1.309447E-2,-2.3625005E-2,-1.6752843E-2],"split_indices":[2,3,1,2,3,2,10,0,0,0,0,0,0,0,0],"split_type":[0,0,0,0,0,0,0,0,0,0,0,0,0,0,0],"sum_hessian":[1.3965039E4,8.709606E3,5.2554326E3,7.598555E3,1.1110509E3,3.8607432E3,1.3946893E3,3.4203635E2,7.256519E3,6.331311E2,4.7791986E2,2.4210928E3,1.4396504E3,6.806081E2,7.140813E2],"tree_param":{"num_deleted":"0","num_feature":"28","num_nodes":"15","size_leaf_vector":"1"}},{"base_weights":[3.5707636E-3,1.7667823E-1,-4.0117586E-1,1E0,1.4111096E-1,-2.6114166E-1,-6.381999E-1,3E-2,-9.89645E-3,-1.5151881E-2,5.897164E-3,-3.4397831E-3,-1.194985E-2,-2.258619E-2,-1.5693745E-2],"categories":[],"categories_nodes":[],"categories_segments":[],"categories_sizes":[],"default_left":[0,0,0,0,0,0,0,0,0,0,0,0,0,0,0],"id":32,"left_children":[1,3,5,7,9,11,13,-1,-1,-1,-1,-1,-1,-1,-1],"loss_changes":[9.781459E2,3.392569E2,1.3774438E2,9.686719E1,3.3980505E2,5.2739716E1,1.8030823E1,0E0,0E0,0E0,0E0,0E0,0E0,0E0,0E0],"parents":[2147483647,0,0,1,1,2,2,3,3,4,4,5,5,6,6],"right_children":[2,4,6,8,10,12,14,-1,-1,-1,-1,-1,-1,-1,-1],"split_conditions":[1.8E1,5.0990195E0,2.8E1,1E0,2E0,1E0,1E0,3E-2,-9.89645E-3,-1.5151881E-2,5.897164E-3,-3.4397831E-3,-1.194985E-2,-2.258619E-2,-1.5693745E-2],"split_indices":[1,2,1,19,6,20,10,0,0,0,0,0,0,0,0],"split_type":[0,0,0,0,0,0,0,0,0,0,0,0,0,0,0],"sum_hessian":[1.3938655E4,9.766726E3,4.17193E3,3.2453723E2,9.442188E3,2.6324497E3,1.5394805E3,2.7350162E2,5.1035606E1,7.4145026E2,8.700738E3,1.2810643E3,1.3513854E3,7.5116644E2,7.8831396E2],"tree_param":{"num_deleted":"0","num_feature":"28","num_nodes":"15","size_leaf_vector":"1"}},{"base_weights":[1.6897217E-3,2.2012943E-1,-3.2183424E-1,1E0,1.80065E-1,-1.7586172E-1,-6.109007E-1,3E-2,-1.0604741E-2,-1.4076177E-2,7.175789E-3,-3.5009827E-3,-1.4118506E-2,-2.1364925E-2,-1.53322825E-2],"categories":[],"categories_nodes":[],"categories_segments":[],"categories_sizes":[],"default_left":[0,0,0,0,0,0,0,0,0,0,0,0,0,0,0],"id":33,"left_children":[1,3,5,7,9,11,13,-1,-1,-1,-1,-1,-1,-1,-1],"loss_changes":[9.8834985E2,3.0872333E2,2.37078E2,9.6775696E1,3.0904425E2,6.527432E1,1.6875732E1,0E0,0E0,0E0,0E0,0E0,0E0,0E0,0E0],"parents":[2147483647,0,0,1,1,2,2,3,3,4,4,5,5,6,6],"right_children":[2,4,6,8,10,12,14,-1,-1,-1,-1,-1,-1,-1,-1],"split_conditions":[1.4E1,5.0990195E0,2.6E1,1E0,2E0,4.4911022E1,1E0,3E-2,-1.0604741E-2,-1.4076177E-2,7.175789E-3,-3.5009827E-3,-1.4118506E-2,-2.1364925E-2,-1.53322825E-2],"split_indices":[1,2,1,19,6,2,10,0,0,0,0,0,0,0,0],"split_type":[0,0,0,0,0,0,0,0,0,0,0,0,0,0,0],"sum_hessian":[1.3962926E4,8.337665E3,5.625261E3,3.2724725E2,8.0104175E3,3.7459033E3,1.8793578E3,2.7825333E2,4.899393E1,6.6407404E2,7.3463438E3,3.1288174E3,6.1708594E2,9.1095465E2,9.6840314E2],"tree_param":{"num_deleted":"0","num_feature":"28","num_nodes":"15","size_leaf_vector":"1"}},{"base_weights":[9.536554E-4,1.4432898E-1,-4.5626232E-1,1E0,1.1615404E-1,-8.408946E-1,-4.1356143E-1,3E-2,-5.895841E-3,-1.5003721E-2,5.006508E-3,-0E0,-2.5904449E-2,-8.436975E-3,-1.5858032E-2],"categories":[],"categories_nodes":[],"categories_segments":[],"categories_sizes":[],"default_left":[0,0,0,0,0,0,0,0,0,0,0,0,0,0,0],"id":34,"left_children":[1,3,5,7,9,11,13,-1,-1,-1,-1,-1,-1,-1,-1],"loss_changes":[9.16345E2,3.2976965E2,5.2917175E1,5.8173706E1,3.2614563E2,5.6224823E0,4.4974854E1,0E0,0E0,0E0,0E0,0E0,0E0,0E0,0E0],"parents":[2147483647,0,0,1,1,2,2,3,3,4,4,5,5,6,6],"right_children":[2,4,6,8,10,12,14,-1,-1,-1,-1,-1,-1,-1,-1],"split_conditions":[3.8626415E1,5E0,3E0,1E0,2E0,1.6E1,2.427444E1,3E-2,-5.895841E-3,-1.5003721E-2,5.006508E-3,-0E0,-2.5904449E-2,-8.436975E-3,-1.5858032E-2],"split_indices":[2,2,6,19,6,0,3,0,0,0,0,0,0,0,0],"split_type":[0,0,0,0,0,0,0,0,0,0,0,0,0,0,0],"sum_hessian":[1.3956403E4,1.0629055E4,3.3273486E3,2.3735849E2,1.0391696E4,3.195201E2,3.0078284E3,1.9978802E2,3.757046E1,7.851782E2,9.606519E3,9.311825E0,3.1020828E2,1.4114448E3,1.5963837E3],"tree_param":{"num_deleted":"0","num_feature":"28","num_nodes":"15","size_leaf_vector":"1"}},{"base_weights":[5.277252E-3,2.0985568E-1,-3.1945175E-1,2.726677E-1,-3.794605E-1,-1.9027694E-1,-5.876974E-1,1.1719816E-2,-3.1997254E-3,2.0664029E-2,-1.2241317E-2,-2.4162694E-3,-1.3565796E-2,-2.062307E-2,-1.4693177E-2],"categories":[],"categories_nodes":[],"categories_segments":[],"categories_sizes":[],"default_left":[0,0,0,0,0,0,0,0,0,0,0,0,0,0,0],"id":35,"left_children":[1,3,5,7,9,11,13,-1,-1,-1,-1,-1,-1,-1,-1],"loss_changes":[9.2637933E2,3.1768652E2,1.8599799E2,3.468203E2,2.7738846E1,1.0465456E2,1.50269165E1,0E0,0E0,0E0,0E0,0E0,0E0,0E0,0E0],"parents":[2147483647,0,0,1,1,2,2,3,3,4,4,5,5,6,6],"right_children":[2,4,6,8,10,12,14,-1,-1,-1,-1,-1,-1,-1,-1],"split_conditions":[3.0016663E1,6.9443954E1,2.6E1,1E0,4E0,4.738143E1,1E0,1.1719816E-2,-3.1997254E-3,2.0664029E-2,-1.2241317E-2,-2.4162694E-3,-1.3565796E-2,-2.062307E-2,-1.4693177E-2],"split_indices":[2,4,1,18,1,2,10,0,0,0,0,0,0,0,0],"split_type":[0,0,0,0,0,0,0,0,0,0,0,0,0,0,0],"sum_hessian":[1.392201E4,8.543844E3,5.3781665E3,7.7249766E3,8.188672E2,3.6388938E3,1.7392728E3,5.893533E3,1.8314432E3,1.7044088E1,8.018231E2,2.5720112E3,1.0668826E3,8.399694E2,8.993034E2],"tree_param":{"num_deleted":"0","num_feature":"28","num_nodes":"15","size_leaf_vector":"1"}},{"base_weights":[6.2081683E-4,1.3487017E-1,-4.6228793E-1,1E0,1.0181375E-1,-3.2178986E-1,-6.2175083E-1,3E-2,-7.435368E-3,4.647866E-4,1.3487728E-2,-1.1807874E-2,-7.4853824E-4,-2.2288935E-2,-1.5080768E-2],"categories":[],"categories_nodes":[],"categories_segments":[],"categories_sizes":[],"default_left":[0,0,0,0,0,0,0,0,0,0,0,0,0,0,0],"id":36,"left_children":[1,3,5,7,9,11,13,-1,-1,-1,-1,-1,-1,-1,-1],"loss_changes":[8.674456E2,3.4913058E2,6.903833E1,8.1984924E1,3.1454138E2,3.56075E1,1.8819092E1,0E0,0E0,0E0,0E0,0E0,0E0,0E0,0E0],"parents":[2147483647,0,0,1,1,2,2,3,3,4,4,5,5,6,6],"right_children":[2,4,6,8,10,12,14,-1,-1,-1,-1,-1,-1,-1,-1],"split_conditions":[2.1E1,5.0990195E0,2.8E1,1E0,1E0,1E0,1E0,3E-2,-7.435368E-3,4.647866E-4,1.3487728E-2,-1.1807874E-2,-7.4853824E-4,-2.2288935E-2,-1.5080768E-2],"split_indices":[1,2,1,19,17,16,10,0,0,0,0,0,0,0,0],"split_type":[0,0,0,0,0,0,0,0,0,0,0,0,0,0,0],"sum_hessian":[1.3935902E4,1.0807472E4,3.1284307E3,3.4103406E2,1.0466438E4,1.6752384E3,1.4531921E3,2.9173114E2,4.9302914E1,8.391925E3,2.0745137E3,1.34532E3,3.2991846E2,7.0137756E2,7.5181464E2],"tree_param":{"num_deleted":"0","num_feature":"28","num_nodes":"15","size_leaf_vector":"1"}},{"base_weights":[4.527887E-3,1.3387714E-1,-4.4974342E-1,8.2814085E-1,9.244164E-2,-3.18013E-1,-6.3018274E-1,3E-2,3.5632225E-3,-1.6091272E-2,4.193717E-3,-1.2011719E-2,3.4420117E-4,-2.2411603E-2,-1.5477011E-2],"categories":[],"categories_nodes":[],"categories_segments":[],"categories_sizes":[],"default_left":[0,0,0,0,0,0,0,0,0,0,0,0,0,0,0],"id":37,"left_children":[1,3,5,7,9,11,13,-1,-1,-1,-1,-1,-1,-1,-1],"loss_changes":[8.1930566E2,3.1203302E2,7.220148E1,1.9218243E2,3.0599313E2,4.9279404E1,1.4972473E1,0E0,0E0,0E0,0E0,0E0,0E0,0E0,0E0],"parents":[2147483647,0,0,1,1,2,2,3,3,4,4,5,5,6,6],"right_children":[2,4,6,8,10,12,14,-1,-1,-1,-1,-1,-1,-1,-1],"split_conditions":[2.1E1,6E0,2.9E1,4E0,2E0,1E0,1E0,3E-2,3.5632225E-3,-1.6091272E-2,4.193717E-3,-1.2011719E-2,3.4420117E-4,-2.2411603E-2,-1.5477011E-2],"split_indices":[1,2,1,1,6,16,10,0,0,0,0,0,0,0,0],"split_type":[0,0,0,0,0,0,0,0,0,0,0,0,0,0,0],"sum_hessian":[1.3920437E4,1.0839796E4,3.0806416E3,6.030753E2,1.023672E4,1.7926453E3,1.2879962E3,3.293338E2,2.7374155E2,7.113836E2,9.525337E3,1.4348834E3,3.577619E2,6.171178E2,6.708784E2],"tree_param":{"num_deleted":"0","num_feature":"28","num_nodes":"15","size_leaf_vector":"1"}},{"base_weights":[6.440715E-3,1.400561E-1,-4.3854722E-1,3.5173258E-1,-2.749066E-2,-3.378693E-1,-6.388213E-1,1.5129669E-2,-3.10692E-4,-4.119788E-3,8.728652E-3,-6.2342724E-3,-1.4497542E-2,-2.2784809E-2,-1.556343E-2],"categories":[],"categories_nodes":[],"categories_segments":[],"categories_sizes":[],"default_left":[0,0,0,0,0,0,0,0,0,0,0,0,0,0,0],"id":38,"left_children":[1,3,5,7,9,11,13,-1,-1,-1,-1,-1,-1,-1,-1],"loss_changes":[8.29124E2,3.807635E2,6.363495E1,2.6240198E2,2.1009348E2,4.017018E1,1.3089447E1,0E0,0E0,0E0,0E0,0E0,0E0,0E0,0E0],"parents":[2147483647,0,0,1,1,2,2,3,3,4,4,5,5,6,6],"right_children":[2,4,6,8,10,12,14,-1,-1,-1,-1,-1,-1,-1,-1],"split_conditions":[3.8626415E1,7E0,2.9E1,1E0,1E0,5.032892E1,1E0,1.5129669E-2,-3.10692E-4,-4.119788E-3,8.728652E-3,-6.2342724E-3,-1.4497542E-2,-2.2784809E-2,-1.556343E-2],"split_indices":[2,1,1,18,17,2,10,0,0,0,0,0,0,0,0],"split_type":[0,0,0,0,0,0,0,0,0,0,0,0,0,0,0],"sum_hessian":[1.3922013E4,1.0711496E4,3.2105166E3,4.7315703E3,5.979926E3,2.1497185E3,1.0607981E3,3.3285742E3,1.4029963E3,4.4506226E3,1.5293032E3,1.1450665E3,1.0046519E3,5.0995172E2,5.5084644E2],"tree_param":{"num_deleted":"0","num_feature":"28","num_nodes":"15","size_leaf_vector":"1"}},{"base_weights":[3.3145335E-3,1.6069813E-1,-3.4883937E-1,8.649898E-2,4.8270977E-1,-2.037523E-1,-5.6268436E-1,8.5214665E-3,-1.6423807E-3,2.150618E-3,2.154084E-2,-5.2578435E-3,-2.4537852E-2,-1.9822355E-2,-1.4043291E-2],"categories":[],"categories_nodes":[],"categories_segments":[],"categories_sizes":[],"default_left":[0,0,0,0,0,0,0,0,0,0,0,0,0,0,0],"id":39,"left_children":[1,3,5,7,9,11,13,-1,-1,-1,-1,-1,-1,-1,-1],"loss_changes":[7.718878E2,2.2976369E2,1.3267847E2,2.1903693E2,1.7348117E2,4.4575935E1,1.4203613E1,0E0,0E0,0E0,0E0,0E0,0E0,0E0,0E0],"parents":[2147483647,0,0,1,1,2,2,3,3,4,4,5,5,6,6],"right_children":[2,4,6,8,10,12,14,-1,-1,-1,-1,-1,-1,-1,-1],"split_conditions":[1.7E1,1E0,2.6E1,5E0,6.5E1,1E0,1E0,8.5214665E-3,-1.6423807E-3,2.150618E-3,2.154084E-2,-5.2578435E-3,-2.4537852E-2,-1.9822355E-2,-1.4043291E-2],"split_indices":[1,17,1,1,0,13,10,0,0,0,0,0,0,0,0],"split_type":[0,0,0,0,0,0,0,0,0,0,0,0,0,0,0],"sum_hessian":[1.3903923E4,9.613069E3,4.290853E3,7.8208906E3,1.7921788E3,2.5654797E3,1.7253735E3,3.2602466E3,4.560644E3,6.565026E2,1.1356763E3,2.4602837E3,1.0519607E2,8.2554626E2,8.998273E2],"tree_param":{"num_deleted":"0","num_feature":"28","num_nodes":"15","size_leaf_vector":"1"}},{"base_weights":[2.3925474E-3,2.288339E-1,-2.3089443E-1,2.8871858E-1,-4.661846E-1,-1.08207434E-1,-4.903144E-1,1.2625206E-2,-2.2935048E-3,2.14269E-3,-1.54726785E-2,-1.1130557E-3,-1.3612384E-2,-1.151733E-2,-1.7955616E-2],"categories":[],"categories_nodes":[],"categories_segments":[],"categories_sizes":[],"default_left":[0,0,0,0,0,0,0,0,0,0,0,0,0,0,0],"id":40,"left_children":[1,3,5,7,9,11,13,-1,-1,-1,-1,-1,-1,-1,-1],"loss_changes":[7.3646136E2,2.9570218E2,2.1808487E2,3.1501294E2,1.5715858E1,1.1475428E2,2.3936218E1,0E0,0E0,0E0,0E0,0E0,0E0,0E0,0E0],"parents":[2147483647,0,0,1,1,2,2,3,3,4,4,5,5,6,6],"right_children":[2,4,6,8,10,12,14,-1,-1,-1,-1,-1,-1,-1,-1],"split_conditions":[2.4186773E1,7.289727E1,4.4911022E1,1E0,4.2426405E0,5.090614E1,1E0,1.2625206E-2,-2.2935048E-3,2.14269E-3,-1.54726785E-2,-1.1130557E-3,-1.3612384E-2,-1.151733E-2,-1.7955616E-2],"split_indices":[2,3,2,18,2,3,12,0,0,0,0,0,0,0,0],"split_type":[0,0,0,0,0,0,0,0,0,0,0,0,0,0,0],"sum_hessian":[1.3916358E4,7.0634805E3,6.8528784E3,6.507374E3,5.561065E2,4.66029E3,2.1925884E3,4.7793115E3,1.7280624E3,4.5447544E1,5.1065894E2,3.8722634E3,7.8802655E2,1.122757E3,1.0698315E3],"tree_param":{"num_deleted":"0","num_feature":"28","num_nodes":"15","size_leaf_vector":"1"}},{"base_weights":[4.275613E-3,1.2664223E-1,-4.0319952E-1,2.9794687E-1,-4.4317517E-2,-2.8941053E-1,-5.738017E-1,1.3051699E-2,-1.4245162E-3,-4.404039E-3,7.0674373E-3,-4.550935E-3,-1.3681161E-2,-1.391402E-2,-2.0667013E-2],"categories":[],"categories_nodes":[],"categories_segments":[],"categories_sizes":[],"default_left":[0,0,0,0,0,0,0,0,0,0,0,0,0,0,0],"id":41,"left_children":[1,3,5,7,9,11,13,-1,-1,-1,-1,-1,-1,-1,-1],"loss_changes":[6.9536584E2,3.1446674E2,6.1491272E1,2.5437625E2,1.5460559E2,4.422464E1,1.4271515E1,0E0,0E0,0E0,0E0,0E0,0E0,0E0,0E0],"parents":[2147483647,0,0,1,1,2,2,3,3,4,4,5,5,6,6],"right_children":[2,4,6,8,10,12,14,-1,-1,-1,-1,-1,-1,-1,-1],"split_conditions":[3.827532E1,8E0,2.6E1,1E0,1E0,5.032892E1,1E0,1.3051699E-2,-1.4245162E-3,-4.404039E-3,7.0674373E-3,-4.550935E-3,-1.3681161E-2,-1.391402E-2,-2.0667013E-2],"split_indices":[2,1,1,18,17,2,12,0,0,0,0,0,0,0,0],"split_type":[0,0,0,0,0,0,0,0,0,0,0,0,0,0,0],"sum_hessian":[1.3922192E4,1.0711466E4,3.2107258E3,5.3503013E3,5.361165E3,1.9384109E3,1.272315E3,3.8304988E3,1.5198026E3,3.9283486E3,1.4328162E3,1.0700299E3,8.68381E2,6.693263E2,6.029886E2],"tree_param":{"num_deleted":"0","num_feature":"28","num_nodes":"15","size_leaf_vector":"1"}},{"base_weights":[3.001961E-3,1.2959112E-1,-3.8974762E-1,-4.4460547E-1,1.7921822E-1,-2.9136372E-1,-6.080647E-1,3.6239503E-3,-1.6584268E-2,3.1383212E-3,3E-2,-2.1987865E-2,-7.3475256E-3,-2.200247E-2,-1.4624868E-2],"categories":[],"categories_nodes":[],"categories_segments":[],"categories_sizes":[],"default_left":[0,0,0,0,0,0,0,0,0,0,0,0,0,0,0],"id":42,"left_children":[1,3,5,7,9,11,13,-1,-1,-1,-1,-1,-1,-1,-1],"loss_changes":[6.92821E2,3.0110605E2,7.189215E1,5.2353455E1,6.55931E2,4.7465454E1,1.3666565E1,0E0,0E0,0E0,0E0,0E0,0E0,0E0,0E0],"parents":[2147483647,0,0,1,1,2,2,3,3,4,4,5,5,6,6],"right_children":[2,4,6,8,10,12,14,-1,-1,-1,-1,-1,-1,-1,-1],"split_conditions":[3.7161808E1,2E0,2.9E1,1E0,1E0,3E0,1E0,3.6239503E-3,-1.6584268E-2,3.1383212E-3,3E-2,-2.1987865E-2,-7.3475256E-3,-2.200247E-2,-1.4624868E-2],"split_indices":[2,6,1,7,5,6,10,0,0,0,0,0,0,0,0],"split_type":[0,0,0,0,0,0,0,0,0,0,0,0,0,0,0],"sum_hessian":[1.3911311E4,1.0524904E4,3.3864067E3,8.322875E2,9.692616E3,2.3464358E3,1.0399711E3,1.3246715E2,6.998204E2,8.969473E3,7.231444E2,2.1334355E2,2.133092E3,4.9187234E2,5.480987E2],"tree_param":{"num_deleted":"0","num_feature":"28","num_nodes":"15","size_leaf_vector":"1"}},{"base_weights":[1.7433899E-3,1.8877517E-1,-2.5612003E-1,-3.9759892E-1,2.4852315E-1,-1.2834424E-1,-4.9673706E-1,-1.3247303E-2,3E-2,4.662849E-3,3E-2,-1.4395006E-3,-1.2587707E-2,-1.0688844E-2,-1.7800948E-2],"categories":[],"categories_nodes":[],"categories_segments":[],"categories_sizes":[],"default_left":[0,0,0,0,0,0,0,0,0,0,0,0,0,0,0],"id":43,"left_children":[1,3,5,7,9,11,13,-1,-1,-1,-1,-1,-1,-1,-1],"loss_changes":[6.7175903E2,2.8380475E2,1.7951462E2,6.064202E1,5.8082117E2,8.967993E1,2.6171143E1,0E0,0E0,0E0,0E0,0E0,0E0,0E0,0E0],"parents":[2147483647,0,0,1,1,2,2,3,3,4,4,5,5,6,6],"right_children":[2,4,6,8,10,12,14,-1,-1,-1,-1,-1,-1,-1,-1],"split_conditions":[2.758623E1,2E0,2.4E1,1E0,1E0,4.9335587E1,2.9E1,-1.3247303E-2,3E-2,4.662849E-3,3E-2,-1.4395006E-3,-1.2587707E-2,-1.0688844E-2,-1.7800948E-2],"split_indices":[2,6,1,24,5,2,1,0,0,0,0,0,0,0,0],"split_type":[0,0,0,0,0,0,0,0,0,0,0,0,0,0,0],"sum_hessian":[1.3903878E4,8.0613726E3,5.842505E3,7.4115027E2,7.320222E3,3.8240972E3,2.0184078E3,7.2829565E2,1.2854619E1,6.6170166E3,7.032058E2,3.0046223E3,8.1947473E2,8.373135E2,1.1810944E3],"tree_param":{"num_deleted":"0","num_feature":"28","num_nodes":"15","size_leaf_vector":"1"}},{"base_weights":[1.7543635E-3,-2.836812E-1,1.0686011E-1,-4.3248913E-1,-1.4878732E-1,2.3184274E-1,-1.5520008E-1,-2.400867E-2,-1.168884E-2,-1.955966E-3,-1.5422619E-2,5.472889E-3,2.7194936E-2,-1.9555388E-3,-1.4335278E-2],"categories":[],"categories_nodes":[],"categories_segments":[],"categories_sizes":[],"default_left":[0,0,0,0,0,0,0,0,0,0,0,0,0,0,0],"id":44,"left_children":[1,3,5,7,9,11,13,-1,-1,-1,-1,-1,-1,-1,-1],"loss_changes":[4.1770178E2,7.47207E1,3.3368564E2,2.6323303E1,6.0288643E1,2.2910364E2,9.538386E1,0E0,0E0,0E0,0E0,0E0,0E0,0E0,0E0],"parents":[2147483647,0,0,1,1,2,2,3,3,4,4,5,5,6,6],"right_children":[2,4,6,8,10,12,14,-1,-1,-1,-1,-1,-1,-1,-1],"split_conditions":[6E1,4.7E1,4.574406E1,3E0,3.6689724E1,8.4E1,7.289727E1,-2.400867E-2,-1.168884E-2,-1.955966E-3,-1.5422619E-2,5.472889E-3,2.7194936E-2,-1.9555388E-3,-1.4335278E-2],"split_indices":[0,0,3,6,3,0,3,0,0,0,0,0,0,0,0],"split_type":[0,0,0,0,0,0,0,0,0,0,0,0,0,0,0],"sum_hessian":[1.3895883E4,3.735112E3,1.01607705E4,1.7670253E3,1.9680869E3,6.8820933E3,3.2786775E3,1.7153357E2,1.5954917E3,1.6090303E3,3.5905658E2,6.420572E3,4.6152155E2,2.5709373E3,7.077403E2],"tree_param":{"num_deleted":"0","num_feature":"28","num_nodes":"15","size_leaf_vector":"1"}},{"base_weights":[3.5445963E-3,1.811177E-1,-2.5284415E-1,-3.8266778E-1,2.3475978E-1,-1.2385853E-1,-4.7749677E-1,9.599173E-3,-1.4997192E-2,4.4978587E-3,3E-2,-6.4597023E-3,3.4056616E-3,-2.212022E-2,-1.2870958E-2],"categories":[],"categories_nodes":[],"categories_segments":[],"categories_sizes":[],"default_left":[0,0,0,0,0,0,0,0,0,0,0,0,0,0,0],"id":45,"left_children":[1,3,5,7,9,11,13,-1,-1,-1,-1,-1,-1,-1,-1],"loss_changes":[6.3310754E2,2.4936713E2,1.643981E2,6.0594543E1,5.4820825E2,7.913929E1,2.4311646E1,0E0,0E0,0E0,0E0,0E0,0E0,0E0,0E0],"parents":[2147483647,0,0,1,1,2,2,3,3,4,4,5,5,6,6],"right_children":[2,4,6,8,10,12,14,-1,-1,-1,-1,-1,-1,-1,-1],"split_conditions":[1.3E1,2E0,2.4E1,1E0,1E0,1E0,4E0,9.599173E-3,-1.4997192E-2,4.4978587E-3,3E-2,-6.4597023E-3,3.4056616E-3,-2.212022E-2,-1.2870958E-2],"split_indices":[1,6,1,7,5,17,6,0,0,0,0,0,0,0,0],"split_type":[0,0,0,0,0,0,0,0,0,0,0,0,0,0,0],"sum_hessian":[1.3880937E4,8.203757E3,5.677179E3,7.0832983E2,7.495427E3,3.614525E3,2.0626545E3,9.8889244E1,6.094406E2,6.8400693E3,6.5535767E2,2.611866E3,1.0026588E3,3.0840182E2,1.7542527E3],"tree_param":{"num_deleted":"0","num_feature":"28","num_nodes":"15","size_leaf_vector":"1"}},{"base_weights":[-2.1471062E-3,1.11300394E-1,-3.6932397E-1,1E0,9.1151476E-2,-2.840913E-1,-5.870336E-1,3E-2,9.710896E-3,3.10849E-4,1.1910756E-2,-5.419251E-3,-1.2899858E-2,-2.1733083E-2,-1.3684372E-2],"categories":[],"categories_nodes":[],"categories_segments":[],"categories_sizes":[],"default_left":[0,0,0,0,0,0,0,0,0,0,0,0,0,0,0],"id":46,"left_children":[1,3,5,7,9,11,13,-1,-1,-1,-1,-1,-1,-1,-1],"loss_changes":[5.793127E2,2.9433908E2,5.9945618E1,1.1272278E0,2.5973785E2,3.534732E1,1.4468262E1,0E0,0E0,0E0,0E0,0E0,0E0,0E0,0E0],"parents":[2147483647,0,0,1,1,2,2,3,3,4,4,5,5,6,6],"right_children":[2,4,6,8,10,12,14,-1,-1,-1,-1,-1,-1,-1,-1],"split_conditions":[3.7161808E1,4E0,3E1,1E0,1E0,5.032892E1,1E0,3E-2,9.710896E-3,3.10849E-4,1.1910756E-2,-5.419251E-3,-1.2899858E-2,-2.1733083E-2,-1.3684372E-2],"split_indices":[2,2,1,19,17,2,10,0,0,0,0,0,0,0,0],"split_type":[0,0,0,0,0,0,0,0,0,0,0,0,0,0,0],"sum_hessian":[1.3873505E4,1.060041E4,3.2730952E3,1.0142857E2,1.0498981E4,2.364626E3,9.0846924E2,8.962811E1,1.1800463E1,8.312161E3,2.1868198E3,1.3944761E3,9.7014984E2,4.271354E2,4.8133383E2],"tree_param":{"num_deleted":"0","num_feature":"28","num_nodes":"15","size_leaf_vector":"1"}},{"base_weights":[1.9378627E-3,1.7109486E-1,-2.465776E-1,1E0,1.4679532E-1,-1.21110305E-1,-4.6956947E-1,3E-2,5.528966E-3,-1.26526235E-2,5.9824623E-3,-2.6134814E-3,-2.1150835E-2,-1.5811808E-2,-5.8022095E-3],"categories":[],"categories_nodes":[],"categories_segments":[],"categories_sizes":[],"default_left":[0,0,0,0,0,0,0,0,0,0,0,0,0,0,0],"id":47,"left_children":[1,3,5,7,9,11,13,-1,-1,-1,-1,-1,-1,-1,-1],"loss_changes":[5.841107E2,2.556832E2,1.5697318E2,2.2408447E0,2.4507753E2,7.163774E1,3.128543E1,0E0,0E0,0E0,0E0,0E0,0E0,0E0,0E0],"parents":[2147483647,0,0,1,1,2,2,3,3,4,4,5,5,6,6],"right_children":[2,4,6,8,10,12,14,-1,-1,-1,-1,-1,-1,-1,-1],"split_conditions":[1.3E1,4E0,2.4E1,1E0,2E0,1E0,1E0,3E-2,5.528966E-3,-1.26526235E-2,5.9824623E-3,-2.6134814E-3,-2.1150835E-2,-1.5811808E-2,-5.8022095E-3],"split_indices":[1,2,1,23,6,13,16,0,0,0,0,0,0,0,0],"split_type":[0,0,0,0,0,0,0,0,0,0,0,0,0,0,0],"sum_hessian":[1.3869272E4,8.255137E3,5.6141357E3,1.04333435E2,8.150803E3,3.6007698E3,2.0133662E3,9.610911E1,8.224323E0,6.856925E2,7.465111E3,3.4104038E3,1.9036584E2,1.6596893E3,3.5367694E2],"tree_param":{"num_deleted":"0","num_feature":"28","num_nodes":"15","size_leaf_vector":"1"}},{"base_weights":[-4.7800415E-3,-2.6935673E-1,8.9875065E-2,-6.9951886E-1,-2.2367552E-1,1.967144E-1,-1.5597622E-1,1.5426237E-3,-2.1628024E-2,-1.3047258E-2,-4.3590376E-3,9.181261E-3,-4.315927E-3,-6.6821245E-3,7.0927055E-3],"categories":[],"categories_nodes":[],"categories_segments":[],"categories_sizes":[],"default_left":[0,0,0,0,0,0,0,0,0,0,0,0,0,0,0],"id":48,"left_children":[1,3,5,7,9,11,13,-1,-1,-1,-1,-1,-1,-1,-1],"loss_changes":[3.4783423E2,7.116669E1,2.687388E2,6.4054413E0,5.458937E1,2.6589578E2,8.180124E1,0E0,0E0,0E0,0E0,0E0,0E0,0E0,0E0],"parents":[2147483647,0,0,1,1,2,2,3,3,4,4,5,5,6,6],"right_children":[2,4,6,8,10,12,14,-1,-1,-1,-1,-1,-1,-1,-1],"split_conditions":[6E1,3E0,4.748955E1,1.6E1,3.7E1,1E0,1E0,1.5426237E-3,-2.1628024E-2,-1.3047258E-2,-4.3590376E-3,9.181261E-3,-4.315927E-3,-6.6821245E-3,7.0927055E-3],"split_indices":[0,6,3,0,0,18,5,0,0,0,0,0,0,0,0],"split_type":[0,0,0,0,0,0,0,0,0,0,0,0,0,0,0],"sum_hessian":[1.3850776E4,3.6487542E3,1.0202022E4,3.4046182E2,3.3082925E3,7.114522E3,3.0875007E3,8.235924E0,3.322259E2,8.853221E2,2.4229705E3,5.3878145E3,1.7267075E3,2.6424336E3,4.4506717E2],"tree_param":{"num_deleted":"0","num_feature":"28","num_nodes":"15","size_leaf_vector":"1"}},{"base_weights":[-1.7957152E-4,9.853119E-2,-3.9417928E-1,-4.2400175E-1,1.4050716E-1,-2.7490762E-1,-5.438305E-1,-1.4215843E-2,3E-2,2.3075317E-3,2.750662E-2,-2.152645E-2,-6.9815405E-3,-2.0189116E-2,-1.267152E-2],"categories":[],"categories_nodes":[],"categories_segments":[],"categories_sizes":[],"default_left":[0,0,0,0,0,0,0,0,0,0,0,0,0,0,0],"id":49,"left_children":[1,3,5,7,9,11,13,-1,-1,-1,-1,-1,-1,-1,-1],"loss_changes":[5.402738E2,2.4403067E2,4.8740356E1,8.1223785E1,5.070727E2,2.8463951E1,1.7495483E1,0E0,0E0,0E0,0E0,0E0,0E0,0E0,0E0],"parents":[2147483647,0,0,1,1,2,2,3,3,4,4,5,5,6,6],"right_children":[2,4,6,8,10,12,14,-1,-1,-1,-1,-1,-1,-1,-1],"split_conditions":[2.1E1,2E0,2.8E1,1E0,1E0,3E0,1E0,-1.4215843E-2,3E-2,2.3075317E-3,2.750662E-2,-2.152645E-2,-6.9815405E-3,-2.0189116E-2,-1.267152E-2],"split_indices":[1,6,1,24,5,6,10,0,0,0,0,0,0,0,0],"split_type":[0,0,0,0,0,0,0,0,0,0,0,0,0,0,0],"sum_hessian":[1.3854952E4,1.1081295E4,2.7736575E3,8.185983E2,1.0262697E4,1.5557563E3,1.217901E3,8.0386975E2,1.4728553E1,9.492753E3,7.6994385E2,1.2547597E2,1.4302804E3,5.740558E2,6.438452E2],"tree_param":{"num_deleted":"0","num_feature":"28","num_nodes":"15","size_leaf_vector":"1"}},{"base_weights":[-1.2486255E-3,1.1252526E-1,-3.188631E-1,-3.8168553E-1,1.5324283E-1,-2.1130775E-1,-5.357142E-1,-1.2902283E-2,3E-2,2.725054E-3,2.5980571E-2,-8.45407E-3,3.7305143E-3,-2.020925E-2,-1.220919E-2],"categories":[],"categories_nodes":[],"categories_segments":[],"categories_sizes":[],"default_left":[0,0,0,0,0,0,0,0,0,0,0,0,0,0,0],"id":50,"left_children":[1,3,5,7,9,11,13,-1,-1,-1,-1,-1,-1,-1,-1],"loss_changes":[5.0190207E2,2.0623064E2,8.474353E1,7.024149E1,4.1978717E2,5.878444E1,1.9792938E1,0E0,0E0,0E0,0E0,0E0,0E0,0E0,0E0],"parents":[2147483647,0,0,1,1,2,2,3,3,4,4,5,5,6,6],"right_children":[2,4,6,8,10,12,14,-1,-1,-1,-1,-1,-1,-1,-1],"split_conditions":[1.8E1,2E0,2.8E1,1E0,1E0,1E0,1E0,-1.2902283E-2,3E-2,2.725054E-3,2.5980571E-2,-8.45407E-3,3.7305143E-3,-2.020925E-2,-1.220919E-2],"split_indices":[1,6,1,24,5,16,10,0,0,0,0,0,0,0,0],"split_type":[0,0,0,0,0,0,0,0,0,0,0,0,0,0,0],"sum_hessian":[1.3855067E4,1.0202062E4,3.653006E3,7.7133185E2,9.4307295E3,2.452101E3,1.2009052E3,7.568598E2,1.4472081E1,8.678678E3,7.5205164E2,2.0291401E3,4.2296088E2,5.646955E2,6.3620966E2],"tree_param":{"num_deleted":"0","num_feature":"28","num_nodes":"15","size_leaf_vector":"1"}},{"base_weights":[-1.7437046E-4,1.3967761E-1,-2.3910314E-1,1E0,1.1822204E-1,-1.23234876E-1,-4.2877385E-1,3E-2,8.840701E-3,-1.2631935E-2,4.9593886E-3,-2.7713932E-3,-2.10243E-2,-1.4751356E-2,-4.0065E-3],"categories":[],"categories_nodes":[],"categories_segments":[],"categories_sizes":[],"default_left":[0,0,0,0,0,0,0,0,0,0,0,0,0,0,0],"id":51,"left_children":[1,3,5,7,9,11,13,-1,-1,-1,-1,-1,-1,-1,-1],"loss_changes":[4.6372583E2,2.3754222E2,1.1223389E2,1.9453125E0,2.201669E2,5.6844505E1,3.5410065E1,0E0,0E0,0E0,0E0,0E0,0E0,0E0,0E0],"parents":[2147483647,0,0,1,1,2,2,3,3,4,4,5,5,6,6],"right_children":[2,4,6,8,10,12,14,-1,-1,-1,-1,-1,-1,-1,-1],"split_conditions":[1.4E1,4E0,2.4E1,1E0,2E0,1E0,1E0,3E-2,8.840701E-3,-1.2631935E-2,4.9593886E-3,-2.7713932E-3,-2.10243E-2,-1.4751356E-2,-4.0065E-3],"split_indices":[1,2,1,19,6,13,16,0,0,0,0,0,0,0,0],"split_type":[0,0,0,0,0,0,0,0,0,0,0,0,0,0,0],"sum_hessian":[1.3846688E4,8.733858E3,5.1128296E3,1.068791E2,8.6269795E3,3.182512E3,1.9303174E3,9.478064E1,1.2098457E1,6.877114E2,7.939268E3,3.0289578E3,1.5355415E2,1.5857267E3,3.445908E2],"tree_param":{"num_deleted":"0","num_feature":"28","num_nodes":"15","size_leaf_vector":"1"}},{"base_weights":[8.0552325E-4,2.0635363E-1,-1.5845624E-1,2.987575E-1,-5.8781687E-2,-6.7023575E-2,-4.4004697E-1,-8.5017085E-3,1.1138069E-2,2.154831E-3,-7.422011E-3,-4.7089504E-3,5.5567757E-3,-1.6811788E-2,-9.790788E-3],"categories":[],"categories_nodes":[],"categories_segments":[],"categories_sizes":[],"default_left":[0,0,0,0,0,0,0,0,0,0,0,0,0,0,0],"id":52,"left_children":[1,3,5,7,9,11,13,-1,-1,-1,-1,-1,-1,-1,-1],"loss_changes":[4.5437177E2,1.4882513E2,2.010059E2,1.9085962E2,3.9243946E1,1.3450427E2,2.5051636E1,0E0,0E0,0E0,0E0,0E0,0E0,0E0,0E0],"parents":[2147483647,0,0,1,1,2,2,3,3,4,4,5,5,6,6],"right_children":[2,4,6,8,10,12,14,-1,-1,-1,-1,-1,-1,-1,-1],"split_conditions":[8E0,1E0,2.4E1,2E0,4E0,1E0,1E0,-8.5017085E-3,1.1138069E-2,2.154831E-3,-7.422011E-3,-4.7089504E-3,5.5567757E-3,-1.6811788E-2,-9.790788E-3],"split_indices":[1,18,1,6,1,17,10,0,0,0,0,0,0,0,0],"split_type":[0,0,0,0,0,0,0,0,0,0,0,0,0,0,0],"sum_hessian":[1.3850131E4,6.047708E3,7.8024224E3,4.4862476E3,1.5614604E3,5.89757E3,1.9048525E3,4.9382822E2,3.9924194E3,9.2244824E2,6.3901227E2,4.3513154E3,1.5462545E3,9.1067114E2,9.9418134E2],"tree_param":{"num_deleted":"0","num_feature":"28","num_nodes":"15","size_leaf_vector":"1"}},{"base_weights":[4.415633E-3,9.661937E-2,-3.521036E-1,1E0,7.889674E-2,-2.6666114E-1,-5.463754E-1,3E-2,1.07025225E-2,1.3974748E-4,1.0643446E-2,-4.443106E-3,-1.1767313E-2,-2.0433282E-2,-1.2627714E-2],"categories":[],"categories_nodes":[],"categories_segments":[],"categories_sizes":[],"default_left":[0,0,0,0,0,0,0,0,0,0,0,0,0,0,0],"id":53,"left_children":[1,3,5,7,9,11,13,-1,-1,-1,-1,-1,-1,-1,-1],"loss_changes":[4.5598267E2,2.5677435E2,4.6442627E1,4.7817993E-1,2.2340948E2,2.9297455E1,1.283728E1,0E0,0E0,0E0,0E0,0E0,0E0,0E0,0E0],"parents":[2147483647,0,0,1,1,2,2,3,3,4,4,5,5,6,6],"right_children":[2,4,6,8,10,12,14,-1,-1,-1,-1,-1,-1,-1,-1],"split_conditions":[3.8626415E1,4E0,2.9E1,1E0,1E0,4.9648766E1,1E0,3E-2,1.07025225E-2,1.3974748E-4,1.0643446E-2,-4.443106E-3,-1.1767313E-2,-2.0433282E-2,-1.2627714E-2],"split_indices":[2,2,1,19,17,2,10,0,0,0,0,0,0,0,0],"split_type":[0,0,0,0,0,0,0,0,0,0,0,0,0,0,0],"sum_hessian":[1.3844636E4,1.1004981E4,2.8396536E3,1.0989142E2,1.0895091E4,1.9848121E3,8.5484143E2,9.790302E1,1.1988398E1,8.591896E3,2.3031938E3,1.0307603E3,9.5405194E2,3.9647556E2,4.5836588E2],"tree_param":{"num_deleted":"0","num_feature":"28","num_nodes":"15","size_leaf_vector":"1"}},{"base_weights":[8.692049E-3,9.9125266E-2,-3.4544432E-1,3E-2,8.142387E-2,-2.607255E-1,-5.39823E-1,3.6987194E-3,-1.2114557E-2,-2.1823267E-2,-6.423993E-3,-2.1209594E-2,-1.16644455E-2],"categories":[],"categories_nodes":[],"categories_segments":[],"categories_sizes":[],"default_left":[0,0,0,0,0,0,0,0,0,0,0,0,0],"id":54,"left_children":[1,3,5,-1,7,9,11,-1,-1,-1,-1,-1,-1],"loss_changes":[4.4371652E2,2.5505267E2,4.5572784E1,0E0,2.2249664E2,4.2304214E1,1.9713333E1,0E0,0E0,0E0,0E0,0E0,0E0],"parents":[2147483647,0,0,1,1,2,2,4,4,5,5,6,6],"right_children":[2,4,6,-1,8,10,12,-1,-1,-1,-1,-1,-1],"split_conditions":[3.8626415E1,4E0,2.9E1,3E-2,6.9443954E1,3E0,1E0,3.6987194E-3,-1.2114557E-2,-2.1823267E-2,-6.423993E-3,-2.1209594E-2,-1.16644455E-2],"split_indices":[2,2,1,0,3,6,10,0,0,0,0,0,0],"split_type":[0,0,0,0,0,0,0,0,0,0,0,0,0],"sum_hessian":[1.3827956E4,1.1020236E4,2.8077192E3,1.11451645E2,1.0908785E4,1.9679193E3,8.3979974E2,1.0047874E4,8.6091077E2,1.6920596E2,1.7987134E3,3.8573743E2,4.5406232E2],"tree_param":{"num_deleted":"0","num_feature":"28","num_nodes":"13","size_leaf_vector":"1"}},{"base_weights":[3.7239008E-3,1.6919933E-1,-1.8390563E-1,1E0,1.4309074E-1,-9.1605574E-2,-4.1375253E-1,3E-2,1.0597504E-2,1.8316837E-3,1.6262112E-2,-1.6170045E-2,-1.4315376E-3,-2.0806609E-2,-1.0881211E-2],"categories":[],"categories_nodes":[],"categories_segments":[],"categories_sizes":[],"default_left":[0,0,0,0,0,0,0,0,0,0,0,0,0,0,0],"id":55,"left_children":[1,3,5,7,9,11,13,-1,-1,-1,-1,-1,-1,-1,-1],"loss_changes":[4.3046527E2,2.3406087E2,1.3750713E2,5.569153E-1,2.3719313E2,9.123111E1,2.5152618E1,0E0,0E0,0E0,0E0,0E0,0E0,0E0,0E0],"parents":[2147483647,0,0,1,1,2,2,3,3,4,4,5,5,6,6],"right_children":[2,4,6,8,10,12,14,-1,-1,-1,-1,-1,-1,-1,-1],"split_conditions":[2.4186773E1,4E0,2.4E1,1E0,1E0,3E0,4E0,3E-2,1.0597504E-2,1.8316837E-3,1.6262112E-2,-1.6170045E-2,-1.4315376E-3,-2.0806609E-2,-1.0881211E-2],"split_indices":[2,2,1,19,17,6,6,0,0,0,0,0,0,0,0],"split_type":[0,0,0,0,0,0,0,0,0,0,0,0,0,0,0],"sum_hessian":[1.3835937E4,7.3544443E3,6.481492E3,1.14707085E2,7.2397373E3,4.6327603E3,1.8487319E3,1.02712166E2,1.1994916E1,6.0123335E3,1.2274038E3,4.062832E2,4.226477E3,2.7131744E2,1.5774146E3],"tree_param":{"num_deleted":"0","num_feature":"28","num_nodes":"15","size_leaf_vector":"1"}},{"base_weights":[8.822486E-3,1.4425014E-1,-2.020204E-1,1E0,1.2196022E-1,-1.0126139E-1,-4.039456E-1,3E-2,5.4366947E-3,6.210585E-3,-5.1545044E-3,-4.624463E-3,1.2822816E-2,-1.5478175E-2,-8.951606E-3],"categories":[],"categories_nodes":[],"categories_segments":[],"categories_sizes":[],"default_left":[0,0,0,0,0,0,0,0,0,0,0,0,0,0,0],"id":56,"left_children":[1,3,5,7,9,11,13,-1,-1,-1,-1,-1,-1,-1,-1],"loss_changes":[3.9514886E2,2.278113E2,1.0977812E2,5.3698425E0,2.0802219E2,1.0200489E2,2.0294434E1,0E0,0E0,0E0,0E0,0E0,0E0,0E0,0E0],"parents":[2147483647,0,0,1,1,2,2,3,3,4,4,5,5,6,6],"right_children":[2,4,6,8,10,12,14,-1,-1,-1,-1,-1,-1,-1,-1],"split_conditions":[1.3E1,4E0,4.0311287E1,1E0,1E0,1E0,1E0,3E-2,5.4366947E-3,6.210585E-3,-5.1545044E-3,-4.624463E-3,1.2822816E-2,-1.5478175E-2,-8.951606E-3],"split_indices":[1,2,2,19,18,16,10,0,0,0,0,0,0,0,0],"split_type":[0,0,0,0,0,0,0,0,0,0,0,0,0,0,0],"sum_hessian":[1.3810341E4,8.412387E3,5.397954E3,1.18674255E2,8.293713E3,3.6095442E3,1.7884097E3,1.0588239E2,1.2791864E1,6.4348975E3,1.8588152E3,3.2864531E3,3.2309122E2,8.5299005E2,9.354197E2],"tree_param":{"num_deleted":"0","num_feature":"28","num_nodes":"15","size_leaf_vector":"1"}},{"base_weights":[-1.5084579E-3,7.854223E-2,-3.4105957E-1,3E-2,6.157477E-2,-7.3636717E-1,-3.0009973E-1,-1.3781671E-2,3.0435987E-3,-0E0,-2.3027737E-2,-7.0942063E-3,-1.3997841E-2],"categories":[],"categories_nodes":[],"categories_segments":[],"categories_sizes":[],"default_left":[0,0,0,0,0,0,0,0,0,0,0,0,0],"id":57,"left_children":[1,3,5,-1,7,9,11,-1,-1,-1,-1,-1,-1],"loss_changes":[3.766293E2,2.4091225E2,4.1677185E1,0E0,2.3066034E2,5.9513702E0,2.4876343E1,0E0,0E0,0E0,0E0,0E0,0E0],"parents":[2147483647,0,0,1,1,2,2,4,4,5,5,6,6],"right_children":[2,4,6,-1,8,10,12,-1,-1,-1,-1,-1,-1],"split_conditions":[3.939543E1,4E0,3E0,3E-2,2E0,2.1E1,5.9413803E1,-1.3781671E-2,3.0435987E-3,-0E0,-2.3027737E-2,-7.0942063E-3,-1.3997841E-2],"split_indices":[2,2,6,0,6,0,2,0,0,0,0,0,0],"split_type":[0,0,0,0,0,0,0,0,0,0,0,0,0],"sum_hessian":[1.3813964E4,1.1180512E4,2.6334524E3,1.2045825E2,1.1060054E4,2.3596365E2,2.3974888E3,7.805965E2,1.0279457E4,9.263472E0,2.267002E2,1.7483728E3,6.4911584E2],"tree_param":{"num_deleted":"0","num_feature":"28","num_nodes":"13","size_leaf_vector":"1"}},{"base_weights":[3.8160654E-3,1.4448847E-1,-1.9045389E-1,-3.9319894E-1,1.703843E-1,-1.0799167E-1,-4.4939592E-1,-1.5670905E-2,-8.271737E-3,6.0281367E-3,-8.647392E-3,-2.2484334E-3,-2.0772891E-2,-1.736952E-2,-9.963585E-3],"categories":[],"categories_nodes":[],"categories_segments":[],"categories_sizes":[],"default_left":[0,0,0,0,0,0,0,0,0,0,0,0,0,0,0],"id":58,"left_children":[1,3,5,7,9,11,13,-1,-1,-1,-1,-1,-1,-1,-1],"loss_changes":[3.7822086E2,1.12527115E2,1.23758606E2,4.743202E0,1.080509E2,8.530089E1,2.009607E1,0E0,0E0,0E0,0E0,0E0,0E0,0E0,0E0],"parents":[2147483647,0,0,1,1,2,2,3,3,4,4,5,5,6,6],"right_children":[2,4,6,8,10,12,14,-1,-1,-1,-1,-1,-1,-1,-1],"split_conditions":[1.2E1,4E1,2.6E1,3.2E1,6.7380135E1,1E0,1E0,-1.5670905E-2,-8.271737E-3,6.0281367E-3,-8.647392E-3,-2.2484334E-3,-2.0772891E-2,-1.736952E-2,-9.963585E-3],"split_indices":[1,0,1,0,3,13,10,0,0,0,0,0,0,0,0],"split_type":[0,0,0,0,0,0,0,0,0,0,0,0,0,0,0],"sum_hessian":[1.3810882E4,8.013582E3,5.7973E3,3.6297147E2,7.6506104E3,4.405675E3,1.3916246E3,1.5999304E2,2.0297842E2,7.1774604E3,4.7314975E2,4.1775317E3,2.2814322E2,6.468508E2,7.4477374E2],"tree_param":{"num_deleted":"0","num_feature":"28","num_nodes":"15","size_leaf_vector":"1"}},{"base_weights":[6.0753766E-3,1.1803071E-1,-2.2217134E-1,1.8842055E-1,-1.4875196E-1,-1.5218696E-1,-4.7889018E-1,-3.3850425E-3,8.097364E-3,1.7859387E-3,-1.028908E-2,-6.282347E-3,5.068774E-3,-1.875001E-2,-1.0429753E-2],"categories":[],"categories_nodes":[],"categories_segments":[],"categories_sizes":[],"default_left":[0,0,0,0,0,0,0,0,0,0,0,0,0,0,0],"id":59,"left_children":[1,3,5,7,9,11,13,-1,-1,-1,-1,-1,-1,-1,-1],"loss_changes":[3.543533E2,1.7506726E2,8.155493E1,1.8125516E2,7.9254074E1,6.657593E1,1.7322601E1,0E0,0E0,0E0,0E0,0E0,0E0,0E0,0E0],"parents":[2147483647,0,0,1,1,2,2,3,3,4,4,5,5,6,6],"right_children":[2,4,6,8,10,12,14,-1,-1,-1,-1,-1,-1,-1,-1],"split_conditions":[1.5E1,1E0,2.9E1,6E1,4E0,1E0,1E0,-3.3850425E-3,8.097364E-3,1.7859387E-3,-1.028908E-2,-6.282347E-3,5.068774E-3,-1.875001E-2,-1.0429753E-2],"split_indices":[1,18,1,0,1,16,10,0,0,0,0,0,0,0,0],"split_type":[0,0,0,0,0,0,0,0,0,0,0,0,0,0,0],"sum_hessian":[1.3838434E4,9.288563E3,4.54987E3,7.3530547E3,1.9355088E3,3.58503E3,9.648402E2,1.563106E3,5.7899487E3,9.340794E2,1.0014293E3,3.0465857E3,5.384442E2,4.4315353E2,5.2168665E2],"tree_param":{"num_deleted":"0","num_feature":"28","num_nodes":"15","size_leaf_vector":"1"}},{"base_weights":[4.8966715E-3,8.8274375E-2,-2.785186E-1,2.5618546E-2,3.3790556E-1,-3.4126112E-1,2.1298569E-2,5.491763E-3,-2.4409303E-3,1.8115754E-3,1.519267E-2,-1.2439247E-2,-4.8731966E-3,-1.1412259E-2,7.1869264E-3],"categories":[],"categories_nodes":[],"categories_segments":[],"categories_sizes":[],"default_left":[0,0,0,0,0,0,0,0,0,0,0,0,0,0,0],"id":60,"left_children":[1,3,5,7,9,11,13,-1,-1,-1,-1,-1,-1,-1,-1],"loss_changes":[3.2715613E2,1.6723013E2,5.9500275E1,1.4455342E2,9.9869064E1,3.3634613E1,4.9315556E1,0E0,0E0,0E0,0E0,0E0,0E0,0E0,0E0],"parents":[2147483647,0,0,1,1,2,2,3,3,4,4,5,5,6,6],"right_children":[2,4,6,8,10,12,14,-1,-1,-1,-1,-1,-1,-1,-1],"split_conditions":[1.9E1,1E0,1E0,5E0,6.6E1,1E0,4.6E1,5.491763E-3,-2.4409303E-3,1.8115754E-3,1.519267E-2,-1.2439247E-2,-4.8731966E-3,-1.1412259E-2,7.1869264E-3],"split_indices":[1,17,16,1,0,17,0,0,0,0,0,0,0,0,0],"split_type":[0,0,0,0,0,0,0,0,0,0,0,0,0,0,0],"sum_hessian":[1.3815471E4,1.0680238E4,3.135233E3,8.545094E3,2.1351438E3,2.59405E3,5.411828E2,3.4583682E3,5.086726E3,8.114382E2,1.3237057E3,1.8307026E3,7.6334753E2,1.8774817E2,3.5343466E2],"tree_param":{"num_deleted":"0","num_feature":"28","num_nodes":"15","size_leaf_vector":"1"}},{"base_weights":[-1.8960997E-3,7.2862394E-2,-3.4465995E-1,1E0,5.6549277E-2,-7.600291E-1,-3.0211192E-1,3E-2,9.04377E-3,-1.3602328E-2,2.8562474E-3,4.2633546E-4,-2.3863444E-2,-1.1083165E-2,-2.5354421E-3],"categories":[],"categories_nodes":[],"categories_segments":[],"categories_sizes":[],"default_left":[0,0,0,0,0,0,0,0,0,0,0,0,0,0,0],"id":61,"left_children":[1,3,5,7,9,11,13,-1,-1,-1,-1,-1,-1,-1,-1],"loss_changes":[3.5429337E2,2.3048575E2,4.258383E1,2.6617737E0,2.215327E2,6.872589E0,3.271544E1,0E0,0E0,0E0,0E0,0E0,0E0,0E0,0E0],"parents":[2147483647,0,0,1,1,2,2,3,3,4,4,5,5,6,6],"right_children":[2,4,6,8,10,12,14,-1,-1,-1,-1,-1,-1,-1,-1],"split_conditions":[4E1,4E0,3E0,1E0,2E0,2.1E1,1E0,3E-2,9.04377E-3,-1.3602328E-2,2.8562474E-3,4.2633546E-4,-2.3863444E-2,-1.1083165E-2,-2.5354421E-3],"split_indices":[2,2,6,19,6,0,16,0,0,0,0,0,0,0,0],"split_type":[0,0,0,0,0,0,0,0,0,0,0,0,0,0,0],"sum_hessian":[1.3782184E4,1.1316528E4,2.4656545E3,1.22456085E2,1.1194072E4,2.1806091E2,2.2475935E3,1.0855774E2,1.3898351E1,7.8289795E2,1.0411175E4,8.770063E0,2.0929085E2,1.7106624E3,5.3693115E2],"tree_param":{"num_deleted":"0","num_feature":"28","num_nodes":"15","size_leaf_vector":"1"}},{"base_weights":[-6.6841306E-4,1.6886553E-1,-1.3869198E-1,1E0,1.4070933E-1,-6.860086E-2,-3.720725E-1,3E-2,8.945304E-3,-1.0094166E-2,5.5788136E-3,-1.9900074E-2,-1.1655455E-3,-1.2881134E-2,-3.2943115E-3],"categories":[],"categories_nodes":[],"categories_segments":[],"categories_sizes":[],"default_left":[0,0,0,0,0,0,0,0,0,0,0,0,0,0,0],"id":62,"left_children":[1,3,5,7,9,11,13,-1,-1,-1,-1,-1,-1,-1,-1],"loss_changes":[3.2344263E2,1.9708946E2,1.2447676E2,2.4286041E0,1.31868E2,1.0400851E2,2.5923431E1,0E0,0E0,0E0,0E0,0E0,0E0,0E0,0E0],"parents":[2147483647,0,0,1,1,2,2,3,3,4,4,5,5,6,6],"right_children":[2,4,6,8,10,12,14,-1,-1,-1,-1,-1,-1,-1,-1],"split_conditions":[8E0,4E0,2.4E1,1E0,2E0,2E0,1E0,3E-2,8.945304E-3,-1.0094166E-2,5.5788136E-3,-1.9900074E-2,-1.1655455E-3,-1.2881134E-2,-3.2943115E-3],"split_indices":[1,2,1,19,6,6,16,0,0,0,0,0,0,0,0],"split_type":[0,0,0,0,0,0,0,0,0,0,0,0,0,0,0],"sum_hessian":[1.3791813E4,6.1863555E3,7.6054575E3,1.24054665E2,6.0623013E3,5.8573105E3,1.7481472E3,1.1080533E2,1.3249335E1,5.203133E2,5.541988E3,2.7174362E2,5.585567E3,1.4292122E3,3.1893512E2],"tree_param":{"num_deleted":"0","num_feature":"28","num_nodes":"15","size_leaf_vector":"1"}},{"base_weights":[4.153269E-3,7.76135E-2,-3.0356383E-1,1E0,6.2388808E-2,-6.2353885E-1,-2.4590662E-1,3E-2,1.055917E-2,-2.0828725E-4,9.492029E-3,6.138249E-4,-1.939709E-2,-5.0556893E-3,-1.1539465E-2],"categories":[],"categories_nodes":[],"categories_segments":[],"categories_sizes":[],"default_left":[0,0,0,0,0,0,0,0,0,0,0,0,0,0,0],"id":63,"left_children":[1,3,5,7,9,11,13,-1,-1,-1,-1,-1,-1,-1,-1],"loss_changes":[3.119342E2,1.9944281E2,4.824147E1,4.480652E0,1.9440804E2,6.537033E0,2.3929276E1,0E0,0E0,0E0,0E0,0E0,0E0,0E0,0E0],"parents":[2147483647,0,0,1,1,2,2,3,3,4,4,5,5,6,6],"right_children":[2,4,6,8,10,12,14,-1,-1,-1,-1,-1,-1,-1,-1],"split_conditions":[3.8626415E1,4E0,4E0,6.453665E1,1E0,1.6E1,2.6E1,3E-2,1.055917E-2,-2.0828725E-4,9.492029E-3,6.138249E-4,-1.939709E-2,-5.0556893E-3,-1.1539465E-2],"split_indices":[2,2,6,3,17,0,1,0,0,0,0,0,0,0,0],"split_type":[0,0,0,0,0,0,0,0,0,0,0,0,0,0,0],"sum_hessian":[1.3769591E4,1.1121515E4,2.6480764E3,1.2471883E2,1.0996796E4,3.9333347E2,2.254743E3,1.03446594E2,2.1272232E1,8.641117E3,2.3556787E3,1.2479508E1,3.8085394E2,1.4594349E3,7.953081E2],"tree_param":{"num_deleted":"0","num_feature":"28","num_nodes":"15","size_leaf_vector":"1"}},{"base_weights":[2.4448219E-3,1.3820353E-1,-1.5894139E-1,1E0,1.1588788E-1,-5.954529E-1,-1.17809184E-1,3E-2,1.1384068E-2,4.6743206E-3,-1.5779475E-2,-1.4410302E-2,-2.3966007E-2,-1.1324722E-3,-9.890018E-3],"categories":[],"categories_nodes":[],"categories_segments":[],"categories_sizes":[],"default_left":[0,0,0,0,0,0,0,0,0,0,0,0,0,0,0],"id":64,"left_children":[1,3,5,7,9,11,13,-1,-1,-1,-1,-1,-1,-1,-1],"loss_changes":[3.0285138E2,1.8495264E2,1.13060776E2,5.744934E-1,1.8991852E2,1.0403519E1,9.7893425E1,0E0,0E0,0E0,0E0,0E0,0E0,0E0,0E0],"parents":[2147483647,0,0,1,1,2,2,3,3,4,4,5,5,6,6],"right_children":[2,4,6,8,10,12,14,-1,-1,-1,-1,-1,-1,-1,-1],"split_conditions":[2.4186773E1,4E0,3E0,1E0,8.8E1,1E0,2.4E1,3E-2,1.1384068E-2,4.6743206E-3,-1.5779475E-2,-1.4410302E-2,-2.3966007E-2,-1.1324722E-3,-9.890018E-3],"split_indices":[2,2,6,19,0,22,1,0,0,0,0,0,0,0,0],"split_type":[0,0,0,0,0,0,0,0,0,0,0,0,0,0,0],"sum_hessian":[1.3791297E4,7.4933613E3,6.297935E3,1.2946527E2,7.363896E3,5.3381226E2,5.764123E3,1.1597401E2,1.3491263E1,6.938076E3,4.258198E2,3.5613516E2,1.7767708E2,4.1909814E3,1.5731416E3],"tree_param":{"num_deleted":"0","num_feature":"28","num_nodes":"15","size_leaf_vector":"1"}},{"base_weights":[2.864388E-3,9.738586E-2,-2.236193E-1,1.6429545E-1,-1.675083E-1,-1.5058745E-1,-4.3760237E-1,-1.0916305E-2,6.386037E-3,-7.194184E-3,1.0116699E-2,-6.2733153E-3,4.8318263E-3,-2.1420445E-2,-1.1366068E-2],"categories":[],"categories_nodes":[],"categories_segments":[],"categories_sizes":[],"default_left":[0,0,0,0,0,0,0,0,0,0,0,0,0,0,0],"id":65,"left_children":[1,3,5,7,9,11,13,-1,-1,-1,-1,-1,-1,-1,-1],"loss_changes":[2.9536835E2,1.7286707E2,6.3082123E1,2.0027124E2,7.260906E1,5.592256E1,1.5198181E1,0E0,0E0,0E0,0E0,0E0,0E0,0E0,0E0],"parents":[2147483647,0,0,1,1,2,2,3,3,4,4,5,5,6,6],"right_children":[2,4,6,8,10,12,14,-1,-1,-1,-1,-1,-1,-1,-1],"split_conditions":[1.6E1,1E0,2.8E1,2E0,8.4E1,1E0,4E0,-1.0916305E-2,6.386037E-3,-7.194184E-3,1.0116699E-2,-6.2733153E-3,4.8318263E-3,-2.1420445E-2,-1.1366068E-2],"split_indices":[1,18,1,6,0,16,6,0,0,0,0,0,0,0,0],"split_type":[0,0,0,0,0,0,0,0,0,0,0,0,0,0,0],"sum_hessian":[1.3767404E4,9.718277E3,4.0491274E3,7.762626E3,1.9556512E3,3.0290488E3,1.0200786E3,6.491743E2,7.1134517E3,1.7146759E3,2.4097525E2,2.5538528E3,4.7519598E2,1.6479688E2,8.5528174E2],"tree_param":{"num_deleted":"0","num_feature":"28","num_nodes":"15","size_leaf_vector":"1"}},{"base_weights":[-2.9093619E-3,7.565158E-2,-2.4869522E-1,1E0,5.95954E-2,-3.0660167E-1,3.134911E-2,3E-2,9.112645E-3,-1.2267325E-2,2.8400484E-3,-5.8490373E-3,-1.2518751E-2,8.873621E-3,-8.341366E-3],"categories":[],"categories_nodes":[],"categories_segments":[],"categories_sizes":[],"default_left":[0,0,0,0,0,0,0,0,0,0,0,0,0,0,0],"id":66,"left_children":[1,3,5,7,9,11,13,-1,-1,-1,-1,-1,-1,-1,-1],"loss_changes":[2.6688156E2,1.8781775E2,5.4599014E1,7.1331787E0,1.7012556E2,3.376944E1,4.844015E1,0E0,0E0,0E0,0E0,0E0,0E0,0E0,0E0],"parents":[2147483647,0,0,1,1,2,2,3,3,4,4,5,5,6,6],"right_children":[2,4,6,8,10,12,14,-1,-1,-1,-1,-1,-1,-1,-1],"split_conditions":[1.8E1,4E0,1E0,6.453665E1,2E0,2.4E1,4.4294468E1,3E-2,9.112645E-3,-1.2267325E-2,2.8400484E-3,-5.8490373E-3,-1.2518751E-2,8.873621E-3,-8.341366E-3],"split_indices":[1,2,16,3,6,1,2,0,0,0,0,0,0,0,0],"split_type":[0,0,0,0,0,0,0,0,0,0,0,0,0,0,0],"sum_hessian":[1.3777956E4,1.0441594E4,3.336362E3,1.345238E2,1.030707E4,2.766438E3,5.699239E2,1.11277145E2,2.3246653E1,7.119153E2,9.595155E3,1.3889701E3,1.377468E3,3.087363E2,2.6118756E2],"tree_param":{"num_deleted":"0","num_feature":"28","num_nodes":"15","size_leaf_vector":"1"}},{"base_weights":[-2.4989285E-4,6.598998E-2,-3.0147716E-1,1E0,5.0825123E-2,-6.248513E-1,-2.4419095E-1,3E-2,2.7797108E-3,-1.2951966E-2,2.5736967E-3,7.550449E-4,-1.954763E-2,-9.016134E-3,-1.8589578E-3],"categories":[],"categories_nodes":[],"categories_segments":[],"categories_sizes":[],"default_left":[0,0,0,0,0,0,0,0,0,0,0,0,0,0,0],"id":67,"left_children":[1,3,5,7,9,11,13,-1,-1,-1,-1,-1,-1,-1,-1],"loss_changes":[2.7540482E2,1.9568164E2,4.529088E1,5.404541E0,1.8877075E2,7.0403595E0,2.1577972E1,0E0,0E0,0E0,0E0,0E0,0E0,0E0,0E0],"parents":[2147483647,0,0,1,1,2,2,3,3,4,4,5,5,6,6],"right_children":[2,4,6,8,10,12,14,-1,-1,-1,-1,-1,-1,-1,-1],"split_conditions":[3.939543E1,4E0,4E0,1E0,2E0,1.5481577E0,1E0,3E-2,2.7797108E-3,-1.2951966E-2,2.5736967E-3,7.550449E-4,-1.954763E-2,-9.016134E-3,-1.8589578E-3],"split_indices":[2,2,6,23,6,3,16,0,0,0,0,0,0,0,0],"split_type":[0,0,0,0,0,0,0,0,0,0,0,0,0,0,0],"sum_hessian":[1.3754059E4,1.1276543E4,2.4775159E3,1.3375587E2,1.1142787E4,3.6192923E2,2.1155867E3,1.2425E2,9.50588E0,7.467783E2,1.0396009E4,1.3204318E1,3.487249E2,1.6098013E3,5.0578543E2],"tree_param":{"num_deleted":"0","num_feature":"28","num_nodes":"15","size_leaf_vector":"1"}},{"base_weights":[4.405913E-3,6.612612E-2,-2.9982132E-1,1.0206734E-1,-3.6723337E-1,-3.60215E-1,-1.1416945E-1,1.7383877E-2,1.8468607E-3,-5.898198E-3,-1.5113343E-2,-1.475615E-2,-7.037309E-3,9.835938E-4,-1.43929515E-2],"categories":[],"categories_nodes":[],"categories_segments":[],"categories_sizes":[],"default_left":[0,0,0,0,0,0,0,0,0,0,0,0,0,0,0],"id":68,"left_children":[1,3,5,7,9,11,13,-1,-1,-1,-1,-1,-1,-1,-1],"loss_changes":[2.590846E2,1.790679E2,2.5692017E1,2.0480034E2,1.981459E1,2.819432E1,3.2282032E1,0E0,0E0,0E0,0E0,0E0,0E0,0E0,0E0],"parents":[2147483647,0,0,1,1,2,2,3,3,4,4,5,5,6,6],"right_children":[2,4,6,8,10,12,14,-1,-1,-1,-1,-1,-1,-1,-1],"split_conditions":[4.0311287E1,6.9443954E1,1E0,6.708204E0,7.6504265E1,1E0,5.905929E1,1.7383877E-2,1.8468607E-3,-5.898198E-3,-1.5113343E-2,-1.475615E-2,-7.037309E-3,9.835938E-4,-1.43929515E-2],"split_indices":[2,3,16,2,3,10,2,0,0,0,0,0,0,0,0],"split_type":[0,0,0,0,0,0,0,0,0,0,0,0,0,0,0],"sum_hessian":[1.3766116E4,1.1450295E4,2.3158215E3,1.0579212E4,8.7108264E2,1.740081E3,5.7574054E2,8.197143E2,9.759498E3,3.9616522E2,4.7491742E2,8.382333E2,9.018478E2,4.1310007E2,1.6264046E2],"tree_param":{"num_deleted":"0","num_feature":"28","num_nodes":"15","size_leaf_vector":"1"}},{"base_weights":[2.0581333E-3,2.118722E-1,-8.7644994E-2,1.3644344E-1,6.235349E-1,-1.5286687E-1,1.2124139E-1,7.166541E-3,-3.3002044E-3,2.1879485E-2,-1.1402505E-2,-1.7979713E-2,-3.8473539E-3,7.0532598E-3,-6.59552E-3],"categories":[],"categories_nodes":[],"categories_segments":[],"categories_sizes":[],"default_left":[0,0,0,0,0,0,0,0,0,0,0,0,0,0,0],"id":69,"left_children":[1,3,5,7,9,11,13,-1,-1,-1,-1,-1,-1,-1,-1],"loss_changes":[2.5966302E2,1.2785405E2,1.317775E2,8.883924E1,7.0141205E1,8.0685455E1,8.995267E1,0E0,0E0,0E0,0E0,0E0,0E0,0E0,0E0],"parents":[2147483647,0,0,1,1,2,2,3,3,4,4,5,5,6,6],"right_children":[2,4,6,8,10,12,14,-1,-1,-1,-1,-1,-1,-1,-1],"split_conditions":[5E0,8.4E1,1E0,1E0,1E0,2E0,2.1E1,7.166541E-3,-3.3002044E-3,2.1879485E-2,-1.1402505E-2,-1.7979713E-2,-3.8473539E-3,7.0532598E-3,-6.59552E-3],"split_indices":[1,0,17,18,19,6,1,0,0,0,0,0,0,0,0],"split_type":[0,0,0,0,0,0,0,0,0,0,0,0,0,0,0],"sum_hessian":[1.3755889E4,4.119841E3,9.636048E3,3.4901523E3,6.2968854E2,7.3471895E3,2.2888584E3,2.4676562E3,1.0224963E3,5.718073E2,5.7881245E1,3.7510153E2,6.972088E3,1.7190488E3,5.698095E2],"tree_param":{"num_deleted":"0","num_feature":"28","num_nodes":"15","size_leaf_vector":"1"}},{"base_weights":[5.4961657E-3,1.3811958E-1,-1.2748975E-1,2.3023058E-1,-1.3745278E-1,-5.3051394E-1,-8.951034E-2,9.409463E-3,-8.649673E-3,2.413239E-2,-6.144988E-3,-1.6718902E-2,2.1996982E-2,-5.9228466E-4,-8.344637E-3],"categories":[],"categories_nodes":[],"categories_segments":[],"categories_sizes":[],"default_left":[0,0,0,0,0,0,0,0,0,0,0,0,0,0,0],"id":70,"left_children":[1,3,5,7,9,11,13,-1,-1,-1,-1,-1,-1,-1,-1],"loss_changes":[2.431582E2,1.7560101E2,1.05145615E2,2.2481592E2,1.11563736E2,2.3386444E1,8.280473E1,0E0,0E0,0E0,0E0,0E0,0E0,0E0,0E0],"parents":[2147483647,0,0,1,1,2,2,3,3,4,4,5,5,6,6],"right_children":[2,4,6,8,10,12,14,-1,-1,-1,-1,-1,-1,-1,-1],"split_conditions":[2.1954498E1,1E0,3E0,6.7380135E1,5.8309517E0,1E0,4.3829212E1,9.409463E-3,-8.649673E-3,2.413239E-2,-6.144988E-3,-1.6718902E-2,2.1996982E-2,-5.9228466E-4,-8.344637E-3],"split_indices":[2,18,6,3,2,24,2,0,0,0,0,0,0,0,0],"split_type":[0,0,0,0,0,0,0,0,0,0,0,0,0,0,0],"sum_hessian":[1.3752223E4,6.8882036E3,6.8640195E3,5.1653696E3,1.7228337E3,5.827303E2,6.281289E3,4.4528667E3,7.1250305E2,1.0989654E2,1.6129373E3,5.745023E2,8.228001E0,4.593171E3,1.6881182E3],"tree_param":{"num_deleted":"0","num_feature":"28","num_nodes":"15","size_leaf_vector":"1"}},{"base_weights":[-1.8081745E-3,1.9236885E-1,-8.560219E-2,1.0508004E-1,5.0583106E-1,-1.539957E-1,1.3070893E-1,5.996982E-3,-3.8921933E-3,1.7313665E-2,-1.332463E-2,-3.5071566E-3,-1.2876081E-2,7.3348917E-3,-4.763631E-3],"categories":[],"categories_nodes":[],"categories_segments":[],"categories_sizes":[],"default_left":[0,0,0,0,0,0,0,0,0,0,0,0,0,0,0],"id":71,"left_children":[1,3,5,7,9,11,13,-1,-1,-1,-1,-1,-1,-1,-1],"loss_changes":[2.2401305E2,1.1316643E2,1.4254675E2,7.288086E1,6.3269363E1,7.442917E1,7.6739365E1,0E0,0E0,0E0,0E0,0E0,0E0,0E0,0E0],"parents":[2147483647,0,0,1,1,2,2,3,3,4,4,5,5,6,6],"right_children":[2,4,6,8,10,12,14,-1,-1,-1,-1,-1,-1,-1,-1],"split_conditions":[5E0,8.3E1,1E0,1E0,1E0,1E0,2E1,5.996982E-3,-3.8921933E-3,1.7313665E-2,-1.332463E-2,-3.5071566E-3,-1.2876081E-2,7.3348917E-3,-4.763631E-3],"split_indices":[1,0,17,18,19,18,1,0,0,0,0,0,0,0,0],"split_type":[0,0,0,0,0,0,0,0,0,0,0,0,0,0,0],"sum_hessian":[1.3735125E4,4.135394E3,9.599731E3,3.242789E3,8.926051E2,7.297572E3,2.3021592E3,2.3129248E3,9.298642E2,8.3322095E2,5.938412E1,6.4408E3,8.5677203E2,1.6551294E3,6.4702985E2],"tree_param":{"num_deleted":"0","num_feature":"28","num_nodes":"15","size_leaf_vector":"1"}},{"base_weights":[6.543062E-3,2.5133362E-1,-6.1037082E-2,-2.4843594E-1,3.2938468E-1,-1.2709254E-1,1.4536498E-1,5.935188E-3,-1.0620361E-2,5.72024E-3,2.8784044E-2,-1.889188E-2,-3.1397513E-3,1.22323865E-2,-8.365715E-4],"categories":[],"categories_nodes":[],"categories_segments":[],"categories_sizes":[],"default_left":[0,0,0,0,0,0,0,0,0,0,0,0,0,0,0],"id":72,"left_children":[1,3,5,7,9,11,13,-1,-1,-1,-1,-1,-1,-1,-1],"loss_changes":[2.2810251E2,1.1718976E2,1.4732004E2,2.0042881E1,2.2469495E2,9.207585E1,1.19540665E2,0E0,0E0,0E0,0E0,0E0,0E0,0E0,0E0],"parents":[2147483647,0,0,1,1,2,2,3,3,4,4,5,5,6,6],"right_children":[2,4,6,8,10,12,14,-1,-1,-1,-1,-1,-1,-1,-1],"split_conditions":[1.0049875E1,2E0,1E0,1E0,1E0,2E0,2.4758837E1,5.935188E-3,-1.0620361E-2,5.72024E-3,2.8784044E-2,-1.889188E-2,-3.1397513E-3,1.22323865E-2,-8.365715E-4],"split_indices":[2,6,17,25,5,6,2,0,0,0,0,0,0,0,0],"split_type":[0,0,0,0,0,0,0,0,0,0,0,0,0,0,0],"sum_hessian":[1.3740555E4,2.9715852E3,1.076897E4,3.9832965E2,2.5732556E3,8.162606E3,2.6063638E3,7.384324E1,3.2448642E2,2.1163555E3,4.5690002E2,3.403873E2,7.8222188E3,1.035042E3,1.5713217E3],"tree_param":{"num_deleted":"0","num_feature":"28","num_nodes":"15","size_leaf_vector":"1"}},{"base_weights":[-8.344364E-5,5.490408E-2,-3.0198178E-1,1E0,4.1894555E-2,-1.6826594E-1,-4.149073E-1,3E-2,1.5337812E-3,1.8896292E-3,-1.5725017E-2,-2.7076993E-3,-1.5266291E-2,5.3104614E-3,-1.3227248E-2],"categories":[],"categories_nodes":[],"categories_segments":[],"categories_sizes":[],"default_left":[0,0,0,0,0,0,0,0,0,0,0,0,0,0,0],"id":73,"left_children":[1,3,5,7,9,11,13,-1,-1,-1,-1,-1,-1,-1,-1],"loss_changes":[2.2903249E2,1.5157016E2,3.1594559E1,1.105864E1,1.3786057E2,2.6075098E1,1.8559586E1,0E0,0E0,0E0,0E0,0E0,0E0,0E0,0E0],"parents":[2147483647,0,0,1,1,2,2,3,3,4,4,5,5,6,6],"right_children":[2,4,6,8,10,12,14,-1,-1,-1,-1,-1,-1,-1,-1],"split_conditions":[2.2E1,4E0,1E0,1E0,8.8E1,5.9682495E1,2.6E1,3E-2,1.5337812E-3,1.8896292E-3,-1.5725017E-2,-2.7076993E-3,-1.5266291E-2,5.3104614E-3,-1.3227248E-2],"split_indices":[1,2,20,19,0,2,0,0,0,0,0,0,0,0,0],"split_type":[0,0,0,0,0,0,0,0,0,0,0,0,0,0,0],"sum_hessian":[1.3741208E4,1.1626069E4,2.1151387E3,1.4207216E2,1.1483997E4,9.7830426E2,1.1368344E3,1.275449E2,1.452725E1,1.1077862E4,4.0613565E2,8.039656E2,1.7433868E2,4.515557E1,1.0916788E3],"tree_param":{"num_deleted":"0","num_feature":"28","num_nodes":"15","size_leaf_vector":"1"}},{"base_weights":[5.6019536E-4,5.600933E-2,-2.811382E-1,8.476082E-2,-4.1810772E-1,-6.100291E-1,-2.236519E-1,3E-2,2.0522894E-3,-9.6198276E-4,-1.3412037E-2,1.4578316E-3,-1.9143945E-2,-8.615878E-3,-7.6344865E-4],"categories":[],"categories_nodes":[],"categories_segments":[],"categories_sizes":[],"default_left":[0,0,0,0,0,0,0,0,0,0,0,0,0,0,0],"id":74,"left_children":[1,3,5,7,9,11,13,-1,-1,-1,-1,-1,-1,-1,-1],"loss_changes":[2.151703E2,1.5731413E2,4.211061E1,1.7328687E2,6.987831E0,6.8661194E0,2.422586E1,0E0,0E0,0E0,0E0,0E0,0E0,0E0,0E0],"parents":[2147483647,0,0,1,1,2,2,3,3,4,4,5,5,6,6],"right_children":[2,4,6,8,10,12,14,-1,-1,-1,-1,-1,-1,-1,-1],"split_conditions":[4.0311287E1,7.289727E1,4E0,4.2426405E0,5E0,1.6E1,1E0,3E-2,2.0522894E-3,-9.6198276E-4,-1.3412037E-2,1.4578316E-3,-1.9143945E-2,-8.615878E-3,-7.6344865E-4],"split_indices":[2,3,6,2,1,0,16,0,0,0,0,0,0,0,0],"split_type":[0,0,0,0,0,0,0,0,0,0,0,0,0,0,0],"sum_hessian":[1.3741805E4,1.1487993E4,2.2538115E3,1.0837305E4,6.5068866E2,3.2480716E2,1.9290044E3,1.7068752E2,1.0666617E4,4.8096737E1,6.025919E2,1.2020663E1,3.127865E2,1.455798E3,4.7320648E2],"tree_param":{"num_deleted":"0","num_feature":"28","num_nodes":"15","size_leaf_vector":"1"}},{"base_weights":[4.3981668E-4,5.5734657E-2,-2.7610263E-1,8.8287435E-2,-3.5159698E-1,-5.795694E-1,-2.2385772E-1,4.390726E-3,-5.085119E-3,-6.1815265E-3,-1.5268022E-2,-1.817431E-2,4.906976E-4,-8.455881E-3,-1.2636668E-3],"categories":[],"categories_nodes":[],"categories_segments":[],"categories_sizes":[],"default_left":[0,0,0,0,0,0,0,0,0,0,0,0,0,0,0],"id":75,"left_children":[1,3,5,7,9,11,13,-1,-1,-1,-1,-1,-1,-1,-1],"loss_changes":[2.1084387E2,1.5272038E2,3.5744263E1,1.5963779E2,1.8814262E1,5.736992E0,2.0571365E1,0E0,0E0,0E0,0E0,0E0,0E0,0E0,0E0],"parents":[2147483647,0,0,1,1,2,2,3,3,4,4,5,5,6,6],"right_children":[2,4,6,8,10,12,14,-1,-1,-1,-1,-1,-1,-1,-1],"split_conditions":[4E1,6.9443954E1,4E0,1E0,7.869007E1,7.640026E1,1E0,4.390726E-3,-5.085119E-3,-6.1815265E-3,-1.5268022E-2,-1.817431E-2,4.906976E-4,-8.455881E-3,-1.2636668E-3],"split_indices":[2,3,6,18,3,2,16,0,0,0,0,0,0,0,0],"split_type":[0,0,0,0,0,0,0,0,0,0,0,0,0,0,0],"sum_hessian":[1.3754683E4,1.1468959E4,2.285723E3,1.0626278E4,8.4268097E2,3.2471097E2,1.9610121E3,8.677163E3,1.9491152E3,4.4741766E2,3.952633E2,3.1212585E2,1.2585095E1,1.4809128E3,4.8009924E2],"tree_param":{"num_deleted":"0","num_feature":"28","num_nodes":"15","size_leaf_vector":"1"}},{"base_weights":[1.5922547E-3,1.17128454E-1,-1.414169E-1,5.27217E-2,4.1985935E-1,-5.8017194E-1,-1.0228241E-1,-3.23905E-3,7.2382446E-3,1.4498035E-2,-5.918898E-3,-1.3486554E-2,-2.4680547E-2,-1.6739576E-3,-1.0708264E-2],"categories":[],"categories_nodes":[],"categories_segments":[],"categories_sizes":[],"default_left":[0,0,0,0,0,0,0,0,0,0,0,0,0,0,0],"id":76,"left_children":[1,3,5,7,9,11,13,-1,-1,-1,-1,-1,-1,-1,-1],"loss_changes":[2.2719649E2,1.4815982E2,1.0523121E2,1.9075423E2,5.321373E1,1.3680923E1,6.678405E1,0E0,0E0,0E0,0E0,0E0,0E0,0E0,0E0],"parents":[2147483647,0,0,1,1,2,2,3,3,4,4,5,5,6,6],"right_children":[2,4,6,8,10,12,14,-1,-1,-1,-1,-1,-1,-1,-1],"split_conditions":[2.4186773E1,1E0,3E0,1E0,6.819859E1,1E0,2.8E1,-3.23905E-3,7.2382446E-3,1.4498035E-2,-5.918898E-3,-1.3486554E-2,-2.4680547E-2,-1.6739576E-3,-1.0708264E-2],"split_indices":[2,17,6,20,3,22,1,0,0,0,0,0,0,0,0],"split_type":[0,0,0,0,0,0,0,0,0,0,0,0,0,0,0],"sum_hessian":[1.3716299E4,7.590396E3,6.125903E3,6.266669E3,1.323727E3,4.9328943E2,5.632614E3,3.3825532E3,2.884116E3,1.2026771E3,1.210499E2,3.3374545E2,1.5954398E2,4.7718525E3,8.607611E2],"tree_param":{"num_deleted":"0","num_feature":"28","num_nodes":"15","size_leaf_vector":"1"}},{"base_weights":[3.8011088E-3,1.0884038E-1,-1.3388194E-1,-3.2029936E-1,1.4626731E-1,-1.0851859E-1,-5.992341E-1,-1.1173509E-2,3E-2,2.4078526E-3,2.1794131E-2,-1.2220603E-3,-9.6534435E-3,-1.9518381E-2,3.617968E-4],"categories":[],"categories_nodes":[],"categories_segments":[],"categories_sizes":[],"default_left":[0,0,0,0,0,0,0,0,0,0,0,0,0,0,0],"id":77,"left_children":[1,3,5,7,9,11,13,-1,-1,-1,-1,-1,-1,-1,-1],"loss_changes":[1.990943E2,1.2594483E2,7.0100716E1,5.991001E1,2.7496072E2,8.1647026E1,1.0181221E1,0E0,0E0,0E0,0E0,0E0,0E0,0E0,0E0],"parents":[2147483647,0,0,1,1,2,2,3,3,4,4,5,5,6,6],"right_children":[2,4,6,8,10,12,14,-1,-1,-1,-1,-1,-1,-1,-1],"split_conditions":[1.1E1,2E0,1E0,1E0,1E0,4.3011627E1,4.3416588E1,-1.1173509E-2,3E-2,2.4078526E-3,2.1794131E-2,-1.2220603E-3,-9.6534435E-3,-1.9518381E-2,3.617968E-4],"split_indices":[1,6,13,24,5,2,2,0,0,0,0,0,0,0,0],"split_type":[0,0,0,0,0,0,0,0,0,0,0,0,0,0,0],"sum_hessian":[1.373107E4,7.792685E3,5.9383853E3,6.198666E2,7.172819E3,5.639996E3,2.9838892E2,6.0815594E2,1.1710625E1,6.4474604E3,7.253581E2,4.2878223E3,1.3521741E3,2.760299E2,2.2359035E1],"tree_param":{"num_deleted":"0","num_feature":"28","num_nodes":"15","size_leaf_vector":"1"}},{"base_weights":[9.330411E-4,1.11831054E-1,-1.2675561E-1,1.8737885E-1,-1.3189287E-1,-4.616285E-1,-8.9134194E-2,-9.502909E-3,7.2239363E-3,1.2722873E-2,-7.0472984E-3,-9.551436E-3,-1.9581834E-2,-1.8823966E-3,-1.6947772E-2],"categories":[],"categories_nodes":[],"categories_segments":[],"categories_sizes":[],"default_left":[0,0,0,0,0,0,0,0,0,0,0,0,0,0,0],"id":78,"left_children":[1,3,5,7,9,11,13,-1,-1,-1,-1,-1,-1,-1,-1],"loss_changes":[1.9499161E2,1.3601385E2,8.043061E1,1.523889E2,1.0105995E2,1.6350769E1,7.232272E1,0E0,0E0,0E0,0E0,0E0,0E0,0E0,0E0],"parents":[2147483647,0,0,1,1,2,2,3,3,4,4,5,5,6,6],"right_children":[2,4,6,8,10,12,14,-1,-1,-1,-1,-1,-1,-1,-1],"split_conditions":[1E1,1E0,3E0,2E0,7.071068E0,3.0675724E1,1E0,-9.502909E-3,7.2239363E-3,1.2722873E-2,-7.0472984E-3,-9.551436E-3,-1.9581834E-2,-1.8823966E-3,-1.6947772E-2],"split_indices":[1,18,6,6,2,2,13,0,0,0,0,0,0,0,0],"split_type":[0,0,0,0,0,0,0,0,0,0,0,0,0,0,0],"sum_hessian":[1.3733799E4,