{
  "kind": "softmax_logreg",
  "labels": [
    "DOWN",
    "FLAT",
    "UP"
  ],
  "feature_names": [
    "gd_pg",
    "gf_pg",
    "ga_pg",
    "sf_pg",
    "sa_pg",
    "shot_diff_pg",
    "shot_share",
    "pp_pct",
    "pk_pct",
    "home_rate",
    "gd_slope",
    "shot_diff_slope",
    "rel_gf_pg",
    "rel_ga_pg",
    "rel_gd_pg",
    "rel_shot_diff_pg",
    "rel_shot_share",
    "rel_pp_delta",
    "rel_pk_delta",
    "opp_ctx_strength"
  ],
  "standardize": {
    "mu": [
      -0.0006039999425411224,
      3.073864459991455,
      3.074469804763794,
      29.059207916259766,
      29.056438446044922,
      0.002751731313765049,
      0.49993976950645447,
      0.21087881922721863,
      0.7881420850753784,
      0.5001682639122009,
      -0.00017490287427790463,
      -0.0004108206194359809,
      -0.003708068048581481,
      -0.0031703943386673927,
      -0.0005376289482228458,
      0.0006644278764724731,
      -6.753178604412824e-05,
      -0.5642488598823547,
      0.5654388666152954,
      0.9955697655677795
    ],
    "sigma": [
      0.94399094581604,
      0.5843619704246521,
      0.6271013021469116,
      3.0625319480895996,
      2.9663515090942383,
      4.658807754516602,
      0.03990131616592407,
      0.08416253328323364,
      0.07993165403604507,
      0.1282944679260254,
      0.2889696955680847,
      1.090415596961975,
      0.6074376702308655,
      0.6531277298927307,
      0.9727992415428162,
      4.559741497039795,
      0.03902604058384895,
      0.09884531795978546,
      0.0968179851770401,
      0.029772110283374786
    ]
  },
  "weights": [
    [
      0.1415942758321762,
      0.011849533766508102,
      -0.15344403684139252
    ],
    [
      0.10676500201225281,
      0.01338757760822773,
      -0.12015404552221298
    ],
    [
      -0.11365878582000732,
      -0.005362205673009157,
      0.11902127414941788
    ],
    [
      0.0054588308557868,
      -0.00483388127759099,
      -0.0006247819983400404
    ],
    [
      0.031219035387039185,
      0.004849477671086788,
      -0.03606797754764557
    ],
    [
      -0.01628931239247322,
      -0.006265307776629925,
      0.022554384544491768
    ],
    [
      -0.011224795132875443,
      -0.005795126780867577,
      0.01702006720006466
    ],
    [
      0.038497328758239746,
      -0.023769672960042953,
      -0.014727981761097908
    ],
    [
      0.05905481427907944,
      0.012939907610416412,
      -0.07199496775865555
    ],
    [
      0.06390003859996796,
      -0.0061622243374586105,
      -0.057736556977033615
    ],
    [
      0.015380878001451492,
      -0.01312822662293911,
      -0.0022525680251419544
    ],
    [
      -0.03950878232717514,
      0.0013480306370183825,
      0.03816143423318863
    ],
    [
      0.04069279879331589,
      0.016093255952000618,
      -0.05678687244653702
    ],
    [
      -0.07428786903619766,
      -0.005860321223735809,
      0.08014845848083496
    ],
    [
      0.07528543472290039,
      0.013983767479658127,
      -0.0892697423696518
    ],
    [
      -0.06306979805231094,
      -0.005736769642680883,
      0.06880781054496765
    ],
    [
      -0.05245765671133995,
      -0.009613534435629845,
      0.062071435153484344
    ],
    [
      0.027541175484657288,
      -0.00825064443051815,
      -0.019291182979941368
    ],
    [
      0.008845845237374306,
      0.015665702521800995,
      -0.02451208420097828
    ],
    [
      -0.005477958358824253,
      0.005223809275776148,
      0.0002541146823205054
    ]
  ],
  "bias": [
    0.5196108818054199,
    -1.0102710723876953,
    0.4906616806983948
  ],
  "train": {
    "steps": 3000,
    "lr": 0.05,
    "l2": 0.1,
    "train_acc": 0.6320469798657719,
    "train_nll": 0.8214166164398193
  },
  "dataset": {
    "n": 10,
    "k": 5,
    "eps": 0.2,
    "through": null,
    "samples": {
      "total": 5960
    },
    "class_counts": {
      "DOWN": 2732,
      "FLAT": 534,
      "UP": 2694
    },
    "labeling": {
      "score": "unchanged (gd + PP/PK + shots)",
      "pp_baseline": 0.2,
      "pk_baseline": 0.8,
      "shots_deadzone": 8.0,
      "shots_cap": 0.3
    },
    "context": {
      "opponent_adjustment": "relative-to-opponent (Option B)",
      "opp_window": 10,
      "neutral_fallback": "league baseline"
    }
  },
  "trained_at": "2025-12-25T20:17:29Z"
}