{
  "kind": "softmax_logreg",
  "labels": [
    "DOWN",
    "FLAT",
    "UP"
  ],
  "feature_names": [
    "ga_pg",
    "gd_pg",
    "gd_slope",
    "gf_pg",
    "home_rate",
    "opp_ctx_strength",
    "pk_pct",
    "pp_pct",
    "rel_ga_pg",
    "rel_gd_pg",
    "rel_gf_pg",
    "rel_pk_delta",
    "rel_pp_delta",
    "rel_shot_diff_pg",
    "rel_shot_share",
    "sa_pg",
    "sf_pg",
    "shot_diff_pg",
    "shot_diff_slope",
    "shot_share"
  ],
  "standardize": {
    "mu": [
      3.0730977814297478,
      -0.0014297452752672307,
      4.282761883419318e-05,
      3.071668036154475,
      0.50014790468365,
      0.9956614626129824,
      0.7883000375690343,
      0.21067242178195053,
      -0.003313584403323751,
      -0.0014321320968814844,
      -0.004745716500205233,
      0.5659994488023787,
      -0.5649580962451509,
      0.0042026581106279735,
      -3.1379790635905086e-05,
      29.040230073952365,
      29.04631059983564,
      0.006080525883318976,
      0.002107517243096538,
      0.4999638945800381
    ],
    "sigma": [
      0.6259292000596128,
      0.9430015158358426,
      0.2895217149289096,
      0.5841167431845562,
      0.12826499562241572,
      0.02947210876797368,
      0.08014646083517536,
      0.0840661538374376,
      0.6518199824395546,
      0.9723884359903802,
      0.6073001560267932,
      0.09714801376688953,
      0.09886957086216423,
      4.550876122445486,
      0.03895891381438565,
      2.956080364619086,
      3.05862009565735,
      4.6469554274323,
      1.0901929434518773,
      0.039813238218841744
    ]
  },
  "weights": [
    [
      -0.19867308581921028,
      0.063363486899981,
      0.135309598919223
    ],
    [
      0.302258800087457,
      0.0013540392101066539,
      -0.30361283929759225
    ],
    [
      -0.024224650538479234,
      -0.018977127428710945,
      0.04320177796719885
    ],
    [
      0.275073815040846,
      0.07008516392240471,
      -0.34515897896323927
    ],
    [
      0.1037148005357305,
      -0.015082428459606622,
      -0.08863237207609966
    ],
    [
      -0.005666437242521535,
      -0.03145566223289998,
      0.03712209947540983
    ],
    [
      0.06388157530302455,
      -0.03284500190246814,
      -0.03103657340054459
    ],
    [
      -0.08771321931230744,
      0.05136639674275293,
      0.036346822569557236
    ],
    [
      -0.02675399351600911,
      -0.04504274326537355,
      0.07179673678136644
    ],
    [
      -0.045263643038558635,
      0.010081597174857309,
      0.03518204586369913
    ],
    [
      -0.10118988120691125,
      -0.0322024149360805,
      0.13339229614297374
    ],
    [
      -0.07016038741927115,
      0.07638044109417398,
      -0.006220053674891711
    ],
    [
      0.0124892832576851,
      -0.023506447554237957,
      0.011017164296574908
    ],
    [
      -0.31649531118173985,
      0.7515619451252072,
      -0.43506663394345096
    ],
    [
      0.13358318258014953,
      -0.8143455037407336,
      0.6807623211606142
    ],
    [
      0.3250221670760784,
      0.033789613418914094,
      -0.35881178049502277
    ],
    [
      -0.2377005944642865,
      -0.14316803997698754,
      0.3808686344413377
    ],
    [
      -0.36321145909302954,
      -0.11572769855084904,
      0.4789391576438928
    ],
    [
      0.0534750504618258,
      -0.009367012802443914,
      -0.04410803765937249
    ],
    [
      0.8822205433629001,
      0.30056711533124164,
      -1.1827876586941255
    ]
  ],
  "bias": [
    0.34593205648259395,
    -0.6582205052387761,
    0.31228844875622214
  ],
  "train": {
    "steps": 3000,
    "lr": 0.05,
    "l2": 0.2,
    "train_acc": 0.5993426458504519,
    "train_nll": 0.8960781703584945
  },
  "dataset": {
    "n": 10,
    "k": 5,
    "eps": 0.13,
    "n_rows": 6085,
    "class_counts": {
      "DOWN": 2636,
      "FLAT": 862,
      "UP": 2587
    },
    "through": null,
    "teams_used": 33
  },
  "trained_at": "2026-01-06T22:28:21Z"
}