{
  "kind": "softmax_logreg",
  "labels": [
    "DOWN",
    "FLAT",
    "UP"
  ],
  "feature_names": [
    "ga_pg",
    "gd_pg",
    "gd_slope",
    "gf_pg",
    "home_rate",
    "opp_ctx_strength",
    "pk_pct",
    "pp_pct",
    "rel_ga_pg",
    "rel_gd_pg",
    "rel_gf_pg",
    "rel_pk_delta",
    "rel_pp_delta",
    "rel_shot_diff_pg",
    "rel_shot_share",
    "sa_pg",
    "sf_pg",
    "shot_diff_pg",
    "shot_diff_slope",
    "shot_share"
  ],
  "standardize": {
    "mu": [
      3.0729541244415355,
      -0.001398423595219807,
      0.0002506265664160402,
      3.071555700846314,
      0.5002360974901038,
      0.9952598888525669,
      0.7883385387347599,
      0.21055788546446222,
      -0.0034681846043042347,
      -0.0013454890389072655,
      -0.004813673643211669,
      0.5660934091873467,
      -0.5651216934004506,
      0.004536920285530564,
      -2.7613137224337722e-05,
      29.044876684464754,
      29.049961861174584,
      0.005085176709891171,
      0.001724419745014725,
      0.4999539604242677
    ],
    "sigma": [
      0.6531623693689046,
      0.983703648229549,
      0.33842833133486,
      0.6136371441946865,
      0.1384384645436084,
      0.03260019370913312,
      0.08433558780394128,
      0.0879537979219599,
      0.6805550638274622,
      1.0155480460923543,
      0.6386531536517324,
      0.1020289527907448,
      0.10345235114164102,
      4.6694556064916695,
      0.03996642371303015,
      3.0321611903084063,
      3.134718851739179,
      4.7639689657928175,
      1.2723425048345003,
      0.04081178396032555
    ]
  },
  "weights": [
    [
      -0.19590829763029327,
      0.04470872387323869,
      0.15119957375704898
    ],
    [
      0.2807114395521181,
      0.05501472299536285,
      -0.335726162547488
    ],
    [
      0.0015961340474953945,
      -0.031172140261978787,
      0.029576006214477483
    ],
    [
      0.2414732235976621,
      0.13578095870111387,
      -0.37725418229880375
    ],
    [
      0.08425216553847488,
      0.03684271217063815,
      -0.12109487770902701
    ],
    [
      0.013872551498843566,
      -0.019374072456212074,
      0.005501520957378827
    ],
    [
      0.10938641210879754,
      -0.10507374566031101,
      -0.004312666448517721
    ],
    [
      -0.040360844023605055,
      0.020758183866870242,
      0.01960266015672767
    ],
    [
      -0.020339860986208366,
      -0.059131269073239755,
      0.07947113005941546
    ],
    [
      -0.030102725932870594,
      -0.015705023007746344,
      0.045807748940619814
    ],
    [
      -0.0695419096279423,
      -0.08798404847201634,
      0.1575259580999707
    ],
    [
      -0.1107684820397326,
      0.10877853881725986,
      0.001989943222483586
    ],
    [
      -0.02084865083965868,
      0.008701041353996256,
      0.012147609485623129
    ],
    [
      -0.13109157609744646,
      0.543373222327688,
      -0.41228164623020996
    ],
    [
      -0.04964687586257874,
      -0.5340005779219038,
      0.5836474537844833
    ],
    [
      0.2109574697374837,
      0.22695315855854664,
      -0.4379106282960363
    ],
    [
      -0.12385283446070947,
      -0.3001798319841075,
      0.4240326664447703
    ],
    [
      -0.21576565148713078,
      -0.34197072846810056,
      0.5577363799552627
    ],
    [
      0.06540428734733002,
      -0.039584347277421876,
      -0.02581994006991361
    ],
    [
      0.5969120959643464,
      0.6886024647310506,
      -1.285514560695407
    ]
  ],
  "bias": [
    0.43170382700724497,
    -0.8281817167680732,
    0.39647788976091647
  ],
  "train": {
    "steps": 4000,
    "lr": 0.05,
    "l2": 0.2,
    "train_acc": 0.6183393265773128,
    "train_nll": 0.8538253445038781
  },
  "dataset": {
    "n": 9,
    "k": 5,
    "eps": 0.11,
    "n_rows": 6118,
    "class_counts": {
      "DOWN": 2735,
      "FLAT": 691,
      "UP": 2692
    },
    "through": null,
    "teams_used": 33
  },
  "trained_at": "2026-01-06T22:50:42Z"
}